svm_type c_svc
kernel_type rbf
gamma 0.0102041
nr_class 14
total_sv 729
rho 0.241185 0.306153 0.447218 0.390301 0.0881525 0.537977 0.565037 0.500412 0.230014 0.397669 0.334476 0.370638 0.471291 0.358838 0.427058 0.316506 0.118498 0.474422 0.566085 0.4619 -0.0653984 0.331634 0.216797 0.00651899 0.645653 0.0222789 -0.201193 -0.0877509 0.238119 0.121062 0.255033 -0.169556 0.133385 -0.0276344 -0.157709 -0.0510819 0.0298207 -0.193257 0.184106 -0.00833173 0.0998602 -0.383481 0.0631844 -0.0819727 -0.305292 0.103705 -0.166671 0.240888 0.273981 0.264643 -0.193622 0.107755 0.0415199 -0.124826 -0.0536963 0.381023 0.350401 0.314854 -0.07611 0.211617 0.179938 0.263464 0.333008 -0.0769884 -0.0259242 -0.477466 -0.11773 -0.364816 -0.356493 -0.273571 0.269462 -0.390502 0.0239187 -0.213018 -0.344037 -0.0809487 -0.341779 -0.024243 -0.154479 -0.393287 -0.160013 0.373468 0.0730741 0.108145 0.200383 -0.125228 -0.237892 -0.162174 -0.269306 0.221528 0.183624
label 45 46 49 39 43 3 48 59 60 47 58 38 41 40
nr_sv 34 52 51 55 48 58 42 55 77 59 36 52 56 54
SV
0 0.282482212413185 0.8464411635352036 0 0.5097690892827319 0.1482217917973985 0.5718148017506821 1.308348123681515 0 0.4165577372851478 0.3590280497751856 0.1698974493004056 0.2796951164795709 16:3 25:1 26:2 27:3 36:1 37:4 47:4 56:1 57:2 65:1 66:1 67:2 73:1 74:1 75:1 76:2 83:1 84:1 85:2 
0 0.3039269922155345 0.4793154529461211 0.08276788414641421 0 0 0 0.5180374963555447 0 0 0.2051191584678333 0 0 18:1 27:1 28:3 29:1 37:4 38:2 47:1 48:4 56:1 57:1 58:1 63:1 64:2 65:2 66:1 67:2 68:1 72:1 73:2 76:2 77:1 83:1 85:2 
0.7195887603626976 0.7971166787954969 1.013114357460806 0.9726203102798945 0.3824535991567939 1.221131866831115 0.8670300189078013 1.422723032313104 0.699698191589691 1.252892808662903 1.19406607491758 1.390211544980422 0.90617914175724 17:2 18:1 19:2 28:2 29:3 38:1 39:1 48:3 49:2 50:1 58:3 59:1 67:1 68:1 69:2 76:2 78:1 79:1 81:1 86:3 87:1 88:1 
0.2551679877946652 0.605087592371115 0.6041364318186155 0.8338689436288526 0.6786264982566104 0.6567021368847036 0.5126431868224296 0.3712519046211795 0.1409465708475061 0.5485154415828225 0.2584686213625992 0.4117026470240034 1.314838605234563 15:1 16:3 17:2 26:1 27:4 36:2 37:2 46:4 56:4 57:1 65:1 66:1 67:2 73:1 74:1 75:1 76:3 77:1 83:2 84:3 85:2 86:1 
0.279275248528092 0.1743867652457322 0.3056200664158322 0.1777621266602315 0 0.1849541249882623 0.2459554969558408 0.2547733478403963 0.006026230548940912 0.07158455020773394 0 0.02653239875215604 0.4176901719238576 17:2 28:3 37:2 38:2 46:1 47:2 48:1 56:2 58:1 65:1 66:4 73:4 74:4 75:2 76:4 77:1 84:2 85:2 86:1 
0.3201705209990514 0.1485039889228263 0.4379067653832595 0.7930437831054918 1.165794166005247 0.5048709800741814 0.9901608963204108 1.671505132897859 0.3359654872496744 0.6924836961875701 1.063006332109638 1.459377580225263 0.348722144369814 17:1 27:2 28:3 36:2 37:1 38:1 46:1 47:1 48:1 55:1 56:2 57:1 62:2 63:1 64:2 65:2 66:1 67:1 72:1 73:1 
0.4308414235004645 0 0 0 0.02087601555042301 0 0.2198033706073843 0 0 0 0 0.6535712177118141 0.2483135682701771 16:1 17:3 18:1 27:1 28:2 37:2 38:2 47:2 48:1 56:1 57:2 63:1 64:2 65:3 66:1 67:2 73:4 74:2 75:1 76:1 77:1 83:1 85:2 
0.1775866228049082 0 0 0.1662899172029325 0.6070944124426982 0 0.6131265055909116 0 0 0 0 0 0 17:2 27:1 28:4 36:1 37:2 38:3 46:2 47:1 56:2 58:1 64:1 65:2 66:3 67:2 68:1 73:3 74:2 75:1 76:2 77:1 85:1 86:1 
0 0 0 0.3984557269316701 0 0 0 0 0 0 0 0.1455772164178921 0.009612436115205507 17:4 18:2 26:1 27:2 28:2 37:2 38:2 47:2 48:2 56:2 57:1 58:2 64:2 65:1 66:2 67:1 73:2 74:2 75:1 76:2 77:1 83:1 84:1 85:1 
0 0 0.2205954836630161 0 0.6848898665470495 0 0 0.03782115150100834 0 0 0.02982718785027242 0.07690965310669845 0 17:2 18:1 27:1 28:2 37:1 38:4 47:2 48:2 56:1 58:1 65:1 66:3 67:1 68:1 73:2 74:2 75:1 76:1 77:1 84:2 85:2 86:1 
0 0 0.3806602293665028 0.1357879085518014 0 0.3527289280168505 0.6546498118288406 0 0.4073481370520156 0.1164271290651312 0 0 0.06404775349487311 18:1 27:1 28:3 37:3 47:1 48:2 58:2 63:1 64:2 65:2 66:1 67:3 68:1 72:2 73:3 75:1 76:2 77:1 83:2 84:1 85:2 
0 0 0 0 0 0 0 0 0 0 0 0 0.03842323813361306 16:4 17:2 26:3 27:2 37:3 46:2 47:1 56:3 57:1 65:2 66:1 67:2 73:2 74:1 75:1 76:3 83:1 84:3 85:3 
0.434545603086934 0.5477655230047764 0.9961691313983664 0.9908696376741076 0.7610303736374666 0.5795447984385786 1.112282058827686 0.7694486577099547 1.197194017804936 0.586235713701724 0.6115883029683311 0.1645355494327723 0.7233433964261791 18:1 19:2 28:1 29:2 31:1 38:2 39:2 48:3 58:1 59:1 65:1 66:1 67:3 68:2 69:2 74:2 75:2 76:2 77:1 78:2 85:2 86:2 87:2 
1.499999143287012 0.7017784553922048 0.8444258745329655 0.8982083745651069 2.457060752485912 0.5041150209122341 1.471585383135602 0.7871079758595745 0.3582544428091665 0.5033907020550048 0.5759183006620869 1.637684549062007 1.164505062644018 15:2 17:2 25:2 26:2 36:2 37:2 46:2 47:3 55:2 56:1 57:2 63:1 64:2 65:3 66:2 67:1 74:2 75:3 76:1 83:1 84:2 
1.014222907964393 1.194482018547033 2.041613784275027 1.136742794262604 0.7313437384916178 0.8054793703503832 1.445418546674285 1.474483161606928 1.918543014446176 1.969410724288456 2.252722395978706 1.808239242623931 0.6870249059985788 28:2 38:2 47:1 48:1 53:1 54:4 55:2 57:2 63:1 65:2 66:2 67:2 74:1 76:1 
0 0 0 0.01536381018033358 0 0 0 0 0 0 0 0 0 17:2 18:1 28:3 36:1 37:2 38:1 46:1 48:1 56:1 57:2 58:1 67:2 73:4 75:2 76:2 83:1 84:2 
0 0 0.1049477256492831 0 0 0 0 0 0 0 0 0 0 17:2 18:1 26:2 27:2 36:2 37:1 48:2 56:1 57:1 58:2 65:2 66:1 67:2 73:3 74:2 76:3 77:1 84:2 85:2 
0 0 0 0 0 0 0 0 0.9630819487812395 0 0 0 0 15:3 16:1 25:1 27:1 35:1 36:2 37:3 46:1 47:1 56:2 57:2 65:3 66:1 67:1 73:1 74:3 75:2 76:2 77:1 84:3 85:1 
0 0 0.0446372591176717 0.2150509871192434 0 0.5231703147898379 0 0 0 0 0 0 0.04814072918142227 18:1 27:1 28:2 37:3 38:2 46:1 47:2 48:4 56:2 57:3 58:2 63:1 64:2 65:3 66:2 67:3 68:1 72:1 73:2 76:3 77:1 83:1 84:1 85:2 
0 0 0.003567542995010141 0.194650637138538 0 0.2850042813521923 0.4279962736311439 0 0 0 0 0 0 17:4 18:1 26:2 27:2 36:2 37:1 38:2 46:1 47:2 48:2 56:2 57:1 58:2 63:1 64:2 65:2 66:1 67:2 73:3 74:2 75:2 76:3 77:1 83:2 84:1 85:1 
0 0 0.003279889619762162 0.1470467024679865 0 0 0 0 0 0 0 0 0 17:3 26:1 27:2 28:1 36:2 46:2 48:2 56:1 58:2 65:2 66:1 67:2 73:3 74:2 76:2 77:1 84:2 85:2 
0.9480397975557527 0.776013096202554 0.8490019696547945 0.8065070122980942 0.3007166147358224 0.3494564099423593 1.030291969646977 0.566815761727792 0.4001924065083998 0.2929657441419862 0.2624452258939785 0.9019112837617012 0.148791336487497 15:4 16:1 25:2 26:1 27:2 35:2 36:2 37:3 46:2 56:2 57:2 65:3 66:1 67:2 73:1 74:3 75:1 76:2 83:1 84:4 85:2 
0 0.2959704345398013 0.814618468803529 0.2322174557476984 0 0.02076917467204163 0.4224379325419432 0 0 0.2186493257658315 0.8444858538526505 0.280407001644836 0.4176454558282795 17:1 18:1 27:4 37:1 38:3 46:2 47:1 48:1 56:1 57:1 58:2 64:2 65:1 66:1 67:2 72:1 73:3 75:1 76:2 77:1 83:1 84:2 85:1 
0 0.138940920264141 0 0 0 0.1467063905967079 0 0 0 0.2175941310403885 0 0 0 15:2 16:2 17:2 25:2 26:1 36:3 37:4 46:3 47:3 56:1 57:2 65:3 66:1 67:2 73:2 75:1 76:2 83:1 84:3 85:2 
1.001568275808755 0.3762013861219339 0.6140932977193769 0.2712402283310952 0.4935138031880141 0.003496977534293715 0.007310183321945539 0.5746878955812924 1.352551491609653 0.1541093607805662 0.8714086510080821 0.3667911672574259 0.8513965845163347 15:2 16:1 25:3 26:2 35:1 37:1 45:1 46:2 47:2 55:1 56:1 57:2 65:1 66:1 67:1 73:2 74:1 75:1 76:3 83:1 84:3 85:1 
0.5474926671424695 0.9929448757467931 0.7390417200074597 0.527136446758027 0.8092548717563102 0.5056678216022453 0.8835411543242663 0.9550642284354564 0.8374002335309508 0.7617607533212863 0.5852020422483557 0.6517403356529902 0.3010984122965342 17:2 18:1 26:2 36:2 46:2 47:2 56:2 57:1 66:2 67:1 68:1 73:1 74:4 75:3 76:1 77:1 
0 0 0 0 0 0.1160481693982672 0 0 0 0 0 0 0 17:1 18:2 27:1 28:1 29:1 37:2 38:2 46:1 47:2 48:1 56:3 57:1 58:2 62:1 63:2 64:2 65:2 67:3 73:2 75:2 76:2 
1.420394004709411 0 0.9313474726173009 0.02776293020532902 0.4825140046969854 0 0.7310947660156041 0.070140722090225 0 0 0.5363413488009127 1.34101847067962 0.5038763588434336 15:2 16:3 17:2 25:2 26:2 27:2 35:1 36:2 37:2 47:2 56:2 57:2 65:3 67:2 73:2 75:1 76:2 83:1 84:2 85:2 
0 0 0 0 0.124648764933586 0 0 0 0.8278344807758694 0.03596761209379701 0 0 0 16:1 17:2 18:1 26:2 36:2 46:2 47:1 56:2 58:1 64:2 65:2 66:1 67:3 73:1 74:1 76:3 77:1 84:1 
1.321847953197762 0 0 0 0.2294333547397842 0 0 0.1461291020629591 0.07623272698808094 0 0 1.227554439051668 0 15:1 16:2 17:1 25:2 27:2 35:2 36:1 46:2 47:2 56:2 57:2 65:1 66:1 67:2 73:1 74:1 75:1 76:1 83:1 84:2 85:2 
0.06518020838880408 1.344180413720886 0 0.4536424306208625 0.08899361224621019 0 0.4254770396839214 1.202652874592284 0 0 0.02855304274626902 0.6723251942094159 0.07280491792923141 16:1 17:3 18:2 26:2 27:2 28:2 36:2 37:2 38:2 46:2 47:2 48:2 56:2 57:1 58:2 64:2 65:2 66:1 67:2 73:1 74:1 76:2 77:1 85:1 
0 0.3195841076032595 0.7717002060991345 0.1402658403664474 0 0.2248135722422536 0.2617776685733385 0.03968068228787853 0.01113822728725118 0.3687028868381853 0.2336471740880703 0.3533803382586057 0.1967326540448715 18:2 27:1 28:2 29:2 37:3 38:1 46:1 47:1 48:3 56:3 58:2 62:1 63:2 64:2 65:2 66:1 67:1 73:2 75:2 76:2 
0 0.2179223966651879 0 0.310287890619713 0 0 0 0.2561077160921573 0 0 0.4370661359723967 0 0 18:1 27:1 28:3 36:1 37:1 38:2 46:1 47:1 48:2 55:1 56:2 62:2 63:1 66:1 72:1 73:1 74:2 75:2 76:1 
0 0.1930908620393039 0.1779500403573775 0 0.3742241956948645 0 0 0 0.1887325826911567 0 0 0 0.0914012456168961 16:2 17:1 26:1 27:3 36:3 46:2 47:2 48:1 56:1 57:2 65:1 66:1 67:1 73:1 74:3 75:2 76:3 77:1 83:1 84:4 85:3 86:1 
-0.4019702449745443 2.333856141204648 2.191329441192932 1.300661937888268 0.8751900577999149 1.139498481304979 1.280971840469904 2.3103840666112 1.163514670667606 1.446527632957516 2.860266469781263 2.062818739457701 1.479221412882606 23:1 25:1 26:2 32:1 33:3 34:3 35:4 36:2 37:1 43:2 44:4 45:2 46:3 53:3 54:2 55:1 56:2 63:3 64:1 66:1 67:1 73:1 75:1 76:1 77:1 
-0 0 0 0.6104240218513641 0 0 0 0 0 0 0.2455574257053327 0 1.333559378793087 13:1 14:2 15:1 16:4 17:1 23:2 24:2 25:2 26:1 27:2 33:3 34:2 35:2 36:2 43:3 44:2 46:2 53:2 55:1 56:1 57:1 63:2 66:1 67:1 73:1 74:1 75:2 76:3 77:1 78:1 84:3 85:1 87:3 88:1 
-0 0 0 0 0 0 0 0 0 0 0 0.08970257795700473 0 13:1 14:1 15:1 16:1 17:1 23:2 24:1 25:3 26:1 27:2 33:2 35:3 36:2 37:1 43:2 46:2 47:1 53:2 55:2 56:1 57:3 63:1 65:3 66:3 67:1 68:1 73:1 74:1 75:2 76:1 78:1 84:1 87:1 88:1 
-0 0.0361878633960302 0.1063928992098441 1.303824679338452 1.428436412585325 0 0.3214434954244919 0.4283651113481989 0 0.3552215685405116 0.9115990377143773 1.194210622546869 0.8452777677961918 15:3 16:2 17:1 18:1 24:1 26:2 27:3 34:3 35:2 36:3 37:1 38:1 44:1 45:1 47:3 53:1 54:1 55:1 56:1 57:2 63:1 65:1 66:2 67:2 73:2 74:3 76:2 77:1 84:1 86:2 87:3 
-0 0 0 0 0 0 0 0 0.1687189453842309 0 0 0 0 14:2 15:3 25:3 26:2 27:1 28:2 34:2 35:4 36:1 37:2 43:2 45:1 46:1 55:1 57:2 63:2 65:3 66:1 67:2 73:3 74:2 77:1 84:2 86:2 87:3 
-1.413706034147315 0 0.3148264829791245 0 0 0 1.820917418111626 0.140187164635826 0.4205233807103062 0 0.2091925163083657 0 0 13:1 14:1 15:1 16:2 17:2 25:4 26:1 27:2 34:1 35:3 36:1 37:1 44:1 46:1 47:1 55:2 56:1 57:2 65:2 66:3 67:1 68:1 74:2 75:2 76:2 77:1 83:1 84:2 87:1 88:1 
-0 0.4446165043575476 1.308275745996891 0.8041130507671591 0.693333069114476 0 0 0 0 0 0.04833130731545984 0 2.389785376330063 14:3 15:2 16:2 17:2 23:1 24:2 25:1 26:2 27:2 33:2 34:1 35:1 36:1 37:2 43:2 44:1 45:2 46:2 47:1 53:2 54:2 56:2 57:1 63:2 64:1 65:3 66:3 67:1 68:1 73:2 74:1 75:2 76:2 77:1 78:2 87:2 88:1 
-0 0.1398807881243567 0.196097988491676 0.6302382829908002 1.929484240713632 0.1485581439325945 0.9327264435052994 0.160152595989776 0 0 0 0.735559896409347 1.83775482523003 13:1 14:2 16:3 17:2 23:3 24:2 25:2 27:2 33:1 34:2 35:3 36:2 45:2 46:2 47:1 53:2 55:1 56:1 57:2 63:2 64:2 65:2 66:2 67:1 68:1 73:1 74:2 75:4 76:1 77:2 78:2 84:1 85:1 88:1 
-0.338134724561134 0.7551937381004485 0.744565080671319 0.6402004484695011 0.8946048488102675 0.6770808959922821 2.609163262418333 2.812440805005705 1.187628462197743 0.7340479968772305 1.367422031401073 1.679059652795744 0.5080147077060495 14:3 17:1 24:1 25:2 26:1 27:1 28:1 35:3 36:1 37:2 44:1 45:3 47:2 54:2 56:1 57:2 63:2 64:1 65:3 66:2 67:2 73:2 75:1 76:1 78:2 87:2 88:1 
-0.5283909043069568 0 0 0.2006465843147842 0.2231471514656847 0 2.550690092283338 0 0.326338530853895 0.02750219332821196 1.677409415191741 0.4346400358242112 0.07554437445287734 14:2 15:2 17:2 18:1 24:2 25:2 26:2 27:2 34:1 35:2 36:1 37:2 45:1 47:1 54:1 57:2 63:1 64:2 65:2 66:2 67:2 73:2 75:1 76:1 78:2 84:1 87:2 88:2 
-0 0 0 0 1.70570438922318 0 0 0 0 0 0 0 0 14:1 15:2 16:2 17:2 24:2 25:2 26:3 27:1 28:2 34:1 35:2 36:1 37:3 38:1 45:2 47:2 53:2 55:1 56:1 57:2 63:1 64:1 65:3 66:2 67:2 73:3 74:2 76:2 77:1 84:1 86:2 87:2 
-0.2700472652794199 0.00473678470866355 1.171775025099664 0 0.6422028102283327 0.4895712911360821 0 0 0.0738030348554157 0.2668151663909164 0.4858425983725183 0.8049492929528541 2.103499766190283 12:1 13:2 15:3 16:4 24:4 25:2 26:2 33:2 34:4 43:3 44:1 46:2 47:1 53:1 55:2 56:1 57:3 58:1 63:1 64:1 65:1 66:1 67:1 68:3 74:1 75:1 77:1 78:2 84:1 85:3 
-0.06197902834822189 0.4730170669650861 0.6217501764473381 0.02546136123685955 0 0.2983502597002779 0.6281513593681243 0 0 0.01299656972205591 0.2924948378397123 0.3455388968036681 0.6038613149915391 13:1 14:1 15:3 16:3 22:2 23:2 24:2 25:1 26:3 33:1 34:3 35:2 36:2 43:3 44:4 47:1 53:2 54:1 55:2 56:1 57:3 58:1 63:1 64:2 65:2 66:1 67:1 68:3 74:3 75:3 77:1 78:3 84:3 85:3 
-0 0 0 0.1579642461653563 0.4973492686119865 0 0 0 0 0 0 0 0 13:1 14:2 15:1 16:3 17:2 24:2 25:4 27:2 34:2 35:2 36:2 46:2 47:1 55:2 56:1 57:3 65:2 66:2 67:2 68:1 74:1 75:2 76:1 77:1 84:1 87:2 
-0.06616882588060161 0.1503269810227 0.04335385048737032 0 0 0.2087660927964923 0 0 0.4587944573589536 0.05774181905328554 0.3014353586328207 0 0 15:2 16:1 22:1 23:1 24:1 25:2 26:2 32:2 34:4 36:2 43:2 44:4 46:2 53:1 55:1 56:1 57:1 63:3 65:2 66:1 67:3 68:1 73:1 75:1 76:1 77:1 78:3 83:1 84:1 87:1 88:1 
-0 0.3715246546732621 0.05190558223616205 0.2470911252299406 0 0.1020696122849116 0 0.3050994930235484 0 0.1424777409242246 0.1762450406249969 0.3429023439867858 0 13:2 14:2 15:1 16:4 17:1 23:4 24:2 25:2 26:1 27:2 33:4 34:2 35:2 36:2 43:3 44:2 46:2 53:2 56:1 57:1 63:2 65:2 73:1 74:1 75:2 76:2 78:1 84:3 87:3 88:1 
-0 0 0 0.6758609452421014 0 0.3068262404621563 0.3923370518103524 0.6553733716937884 1.036748528498833 0.2024790618255417 0 0 0.1244642225863986 12:2 13:4 14:2 15:2 22:1 23:2 24:3 26:1 32:1 33:1 34:4 35:2 36:1 43:1 44:2 46:2 53:2 55:3 56:2 57:3 63:2 65:1 66:2 67:1 68:2 73:2 74:1 75:1 76:1 77:2 78:3 84:3 
-1.143109146892645 0 0.6776748558119061 0 0 0 1.325645400124233 0 0.9668958249685732 0 0.4016021991396226 0.4499280795952667 0.4313667356316571 15:3 16:2 17:1 18:1 24:1 26:1 27:3 34:2 35:2 36:1 37:1 44:1 45:1 47:3 53:1 54:1 55:1 56:1 57:2 63:1 64:1 65:3 66:2 67:2 73:3 74:3 76:3 77:1 84:1 86:2 87:2 
-0 0 0 0.08130887435277366 0 0 0 0 0 0 0 0.1680562530526911 0 5:1 14:2 15:3 17:3 18:1 24:3 25:1 26:3 27:1 28:2 34:1 35:4 36:1 37:2 43:2 44:2 45:1 46:1 47:2 53:1 55:2 56:1 57:2 63:3 64:1 65:3 66:1 67:3 73:1 76:1 77:1 87:2 
-0.7476454008572861 0 0.2939000970698716 0 0.2358485511487548 0 4 0 0.7061389334700743 0.2372754733801513 0 0 0 14:1 15:2 16:1 17:2 18:1 24:1 25:2 26:1 27:1 28:1 35:1 36:1 37:3 44:2 45:1 47:2 53:1 54:1 55:1 56:1 57:2 63:1 64:1 65:3 66:2 67:2 73:2 74:2 76:2 77:1 86:2 87:3 
-0 0 0.1768476163509954 0 1.185863739534131 0 0 0.5539160594095855 0.1392691147588197 0 0 0 0.9244328367707261 13:2 14:3 15:2 16:1 17:1 23:2 24:2 25:4 26:1 27:2 33:2 34:2 35:3 36:2 37:1 43:1 45:1 46:1 47:1 55:2 56:1 57:3 65:2 66:3 67:1 68:1 74:2 75:2 76:2 77:2 85:1 87:2 88:2 
-0 0 0 0.03571039764261904 0 0 0 0.4495860845335171 0 0 0 0.9394128917372377 0 13:2 14:2 15:1 16:3 17:3 23:2 24:2 25:4 26:1 27:1 33:2 34:2 35:2 36:2 43:1 44:1 46:2 55:1 56:1 57:3 65:2 66:2 74:1 75:1 77:1 87:2 
-0.3800363072244857 1.402111137737337 1.593858043539716 0.728569736496545 0.8705779319491782 0.6220104984149423 3.097133860603065 1.403133131107535 0.1223127566147216 0.3822432609581215 0.3133845765753963 1.062840503679716 0.3602863461631161 14:1 15:3 16:1 17:1 18:1 24:2 26:1 27:3 34:1 35:2 36:3 37:1 38:2 44:4 45:2 46:1 47:3 54:1 56:1 57:2 64:1 65:1 66:2 67:2 73:2 74:1 75:1 76:2 78:2 84:1 85:1 87:3 88:2 
-0.4557927318912107 1.244862794359801 1.060360766047069 0.7780609007142738 1.259624529517646 0 1.234647080161398 0.2077531122507529 0 0 0 0 0.9778002636075599 14:2 15:3 25:3 26:2 27:1 28:2 34:2 35:4 36:1 37:2 43:2 45:1 46:2 47:1 55:1 57:1 63:2 65:1 66:1 67:3 73:3 74:1 76:1 77:2 83:1 84:2 86:2 87:2 
-0 0 0 0 0 0 0 0 0 0 0 0.4555595554561661 0 14:1 15:3 16:1 24:1 25:4 26:2 27:2 28:2 33:2 34:2 35:4 36:1 37:2 43:2 45:1 46:2 56:1 57:2 63:2 65:2 66:1 67:2 73:3 74:1 76:1 77:2 83:1 84:2 86:1 87:1 
-0 0.2998296932075771 0.06816030137555001 0 0.4470577273077218 0.004415302690995643 0.2839020103410101 0.2666090622791226 0.2824645228881742 0.01362720698263798 0 0 0 14:1 15:2 16:1 24:1 25:1 26:3 27:1 28:3 34:3 35:2 36:3 37:2 38:1 44:1 45:3 53:1 57:2 63:1 64:1 65:3 66:2 67:3 73:3 74:2 76:3 77:1 84:1 86:2 87:2 
-0 0.287808658420366 0 0 0 0 0.3655911319208763 0 0 0 0 0 0 12:1 13:2 14:1 15:2 16:1 22:2 23:2 24:3 26:2 32:1 34:4 35:2 43:2 44:3 46:2 53:2 55:2 57:3 63:4 65:1 66:2 67:1 68:2 73:2 74:1 75:2 76:1 77:3 78:3 84:3 
-0 1.257846154101178 0.2441299481799168 0.5789714499219791 1.277499777971721 0 3.276767841037759 1.392489732834074 0.8502358083160151 0 0.992163040794944 1.225425390246587 0 13:2 14:1 15:1 16:2 17:1 23:2 24:2 25:2 26:2 33:3 34:2 35:2 36:2 43:1 44:1 45:1 46:1 47:1 53:1 54:1 56:2 57:2 58:1 64:1 65:2 66:2 67:1 68:3 74:3 77:2 78:2 84:1 85:1 
-0.07136649442891117 0.4817987436863048 0 0.1944199588938653 0.2596496520087394 0 0.3345350560968363 0 1.563920864979493 0.1635204463330411 1.044455823489149 0 1.20146806415212 12:1 13:1 15:2 16:2 22:1 23:1 24:3 25:2 26:2 33:3 34:4 43:3 44:2 46:1 53:1 55:2 56:1 57:2 58:1 63:2 64:2 65:2 66:1 67:1 68:3 74:2 75:2 77:2 78:4 84:3 85:3 
-0 0.7153524009778198 0.7034034369859395 0.3371172162211861 0.7716632085733902 0 0.7956726398856629 0 0.8952685247640219 0 2.062317201850132 1.053057086132104 2.237966212740453 4:1 14:2 15:3 16:1 17:2 23:1 24:1 25:3 26:3 27:2 28:1 33:1 35:2 36:1 37:1 43:3 44:1 46:2 53:1 55:1 63:2 64:1 65:3 67:1 73:3 74:2 75:1 76:1 77:1 86:2 87:2 
-0.4492010435288507 0.7924713585068612 0.623883193899859 0.7880629576672099 0.04129335317308402 0.4444653489476424 2.553110294084931 0.5232027992616104 0.3185080097609845 0.1677321552705336 1.408721904077613 1.738760939548305 1.757387087774618 4:1 14:1 15:2 16:1 17:3 18:1 24:2 25:2 26:2 27:1 28:3 33:1 34:2 35:3 37:1 38:1 43:1 46:2 53:3 55:1 56:1 57:2 62:1 63:1 64:1 65:2 67:1 73:3 75:1 76:2 77:2 86:2 
-0 0.3551135987706296 0.8921911424960305 0 0 0.3110401233855928 2.048762744868414 0.0384621547661834 0 0.12836453905512 0 0 0 15:3 16:2 17:1 18:1 24:1 26:2 27:3 28:1 34:3 35:2 36:3 37:1 38:3 44:2 45:1 47:3 53:1 55:1 56:1 57:1 63:1 65:2 66:2 67:2 73:3 74:3 76:3 77:1 84:1 86:2 87:3 
-0.03418894418475996 0 0.1046171103681912 0 0 0.1108969381954959 0 0 1.115296845162412 0.1189044492403056 1.969618130604561 0 0 15:2 16:2 22:2 23:2 24:1 25:1 26:2 32:1 33:1 34:4 35:1 36:1 43:1 44:3 46:2 53:3 54:1 55:1 56:1 57:1 63:2 65:3 66:1 67:3 68:1 73:1 75:2 76:2 77:1 78:4 
-0 0 0 0.4706978940741171 0 0 0.6435105923969194 0 0.2578304666300638 0.08370581679161625 0 0 0 14:1 15:2 16:1 18:1 24:1 26:3 27:1 28:3 34:3 35:2 36:2 37:2 38:1 44:1 45:1 47:1 53:2 54:1 55:1 56:1 57:2 63:1 65:3 66:2 67:2 73:4 74:2 76:1 77:2 78:1 86:2 87:3 88:1 
-0 0.1110516139115249 0 0 0.6695508140987092 0 1.448771837341433 0 1.064375631027521 0 0.7040008475487963 0 0 13:1 14:2 15:1 16:2 17:1 23:2 24:2 25:1 26:1 27:1 33:3 34:2 35:2 36:1 43:1 44:2 45:1 46:2 53:1 56:1 57:2 63:2 64:1 65:1 66:2 68:1 74:2 75:2 77:3 78:3 84:3 85:2 87:1 88:1 
-0.4971124194985989 0.8128610450484406 1.02900729795745 1.644376289048329 1.145536591477229 0.2742785264474908 0.006516805038924341 0.688639018043278 0 0.9045277391174708 0 0.06653387335179603 0.03347612216955195 12:1 13:1 15:1 16:2 22:1 23:1 24:3 25:1 26:1 32:1 33:2 34:4 36:3 43:3 44:2 46:2 47:1 53:1 55:2 56:1 57:3 58:1 63:1 64:1 65:2 66:1 67:1 68:2 74:1 75:1 77:1 78:2 84:1 85:2 
-0 0 0.4109032403942272 0.2066549558081693 0.3617529246917503 0 2.957671633028957 1.08462202796278 0.9043518134505163 0 1.399745661758749 0 0 13:1 14:2 16:3 17:3 24:2 25:4 27:2 34:2 35:2 36:2 44:2 46:1 47:1 55:2 56:1 57:2 65:2 66:2 67:1 68:1 74:1 75:2 76:1 77:1 85:1 87:2 
-0 0 0.479651556892013 0.2515314388007169 0.447388258272887 0.09081818061163525 0 0 0 0 0 0.5275988941326021 0.2420171681636374 12:1 13:2 14:1 15:2 16:2 22:1 23:2 24:3 26:1 32:2 34:4 35:1 36:1 42:1 43:1 44:2 46:2 53:2 55:3 56:1 57:3 63:2 65:1 66:2 67:1 68:2 73:2 75:1 76:1 77:1 78:3 84:3 85:1 
-0.3834989683767027 1.082504712904927 0.7031111996501276 1.081235912714704 0.7630894387539933 0.5837484097171368 3.827023413511892 2.011691521679178 0 0.1442449983694302 1.043824199516845 0.9988161392690037 0.8380689913219359 14:1 15:2 16:1 17:2 18:2 24:2 25:2 26:3 27:1 28:4 34:1 35:1 36:1 37:3 38:1 44:2 45:1 47:2 53:2 55:1 56:1 57:1 63:1 64:1 65:3 66:2 67:2 73:2 74:2 76:2 77:1 86:2 87:2 
-0 0 0.2691136307665039 0 0 0 0 0.2038452809870909 0 0 0 0 0 14:2 16:2 23:2 24:2 25:2 27:2 33:2 34:2 35:3 36:2 43:2 44:2 45:1 46:3 53:2 55:1 56:1 57:1 63:1 65:2 66:2 67:3 74:1 75:2 76:2 78:1 84:3 87:1 
-0 0 0 0 0 0.2968729456650545 0 0 0 0.1737944492082772 0 0 0.515252958436568 12:1 13:2 14:1 15:2 16:2 22:2 23:2 24:4 25:2 26:3 33:1 34:4 35:1 36:1 43:2 46:4 53:3 55:1 56:1 57:1 63:1 64:1 65:4 66:3 67:1 68:3 73:2 74:2 75:2 76:1 77:3 78:4 83:1 84:4 85:2 87:1 88:1 
-0.1401755584070955 0.6063638201318066 0.8269508124066112 2.148858640077026 0.5664413262997033 0.6106848574179298 2.396752999641552 0.08753576519889479 0.2355802194397926 0.227170418106223 0 0.2706018223085437 1.55774239346978 13:3 14:3 15:1 17:2 23:2 24:2 25:1 26:2 33:2 34:2 35:2 36:2 44:1 46:1 47:1 53:2 54:1 55:2 56:3 57:3 58:1 63:2 64:2 65:3 66:2 67:1 68:3 73:1 74:3 75:3 77:3 78:3 84:2 85:1 
-0 0 0.05828485238655223 0.3419897203728647 0 0.00206018622862241 0.5519361294378751 0.005161536616388861 0 0 0 0 0 14:2 16:2 23:3 24:2 25:1 26:1 27:2 33:4 34:2 35:3 36:3 37:1 43:3 44:2 45:1 46:3 53:2 54:1 55:1 56:1 57:2 63:2 65:4 66:2 67:3 74:2 75:2 76:3 77:1 78:2 84:3 85:1 87:2 
-0.4240482810296569 0.6209525977201529 0.9864966418957853 0.170854436383255 0 0.3758986278618683 0 0 0.4432908986206622 0.1541564828807815 0 0 0.3827895954311281 13:2 15:1 16:3 23:2 24:2 25:3 26:2 33:1 34:1 36:1 43:2 44:1 46:2 53:3 55:1 56:1 57:1 63:4 65:3 66:2 67:3 73:3 74:2 75:2 76:3 77:2 78:2 83:2 84:4 85:1 87:2 88:1 
-0 0 0.1280886964983068 0.4285000661295182 0.009202919530585987 0 0 0.6213074046636511 0 0 0 0.3350244468889368 1.193446719640859 13:2 14:2 15:1 16:2 23:4 24:2 25:2 26:1 27:1 33:4 34:2 35:3 36:2 43:2 44:1 45:1 46:2 53:1 55:1 56:2 57:1 63:2 64:1 65:2 66:2 67:1 68:1 74:2 75:2 77:2 78:2 84:4 85:2 87:1 88:1 
-0.04376277440046489 0 0.0578363183794728 0 0 0 0 0.3582915473646469 0.1079391698181087 0 0 0 0 14:1 15:3 23:1 24:1 25:3 26:2 27:1 28:1 33:1 34:2 35:4 36:1 37:2 43:2 46:2 55:1 56:1 57:2 63:1 65:3 66:1 67:2 73:2 76:1 77:2 83:1 84:2 86:2 87:2 
-0 0.5591093525701204 0.3192981237411224 0.222378171435712 0.5076030711780934 0 0 0 0 0 0 0 0.4701595535845092 13:2 14:1 15:2 16:3 23:1 24:3 25:2 26:2 33:3 34:2 35:2 36:4 43:1 44:2 45:1 46:1 47:1 53:2 54:1 55:1 56:2 57:2 64:1 65:1 67:2 68:3 74:3 75:1 77:2 78:2 84:1 85:2 
-0.3986125747834635 0 0 0.2790205409988709 0 0 0 0 0.3136953690731571 0 0 0 0 13:2 15:1 16:3 23:1 24:3 25:2 26:2 33:1 34:2 36:3 43:2 44:1 46:2 53:3 55:1 56:1 57:1 63:2 65:3 66:1 67:2 73:2 74:2 76:3 78:1 84:3 87:1 88:1 
-1.84336493562493 0.9628537629939038 0.9171513093926448 0.7272339748046037 1.786078178649075 0.4321820384496506 0 0.9727258432315016 0.2642596840598195 0.5429206627478848 0 2.769126884125348 1.412321110771577 13:1 14:2 15:1 16:3 17:3 25:4 27:2 35:2 36:2 45:1 46:2 47:1 56:1 57:3 65:2 66:1 74:1 75:2 76:1 77:1 84:1 87:1 88:1 
-0 0.5223988384955561 0 0 0 0 0.4780136051558399 0.1600466574640452 0 0 0 1.079815654118469 0.5966699335314393 14:1 15:1 16:1 17:4 18:1 25:3 26:2 27:1 28:1 34:1 35:4 36:1 37:3 44:2 45:2 46:1 47:2 53:1 54:2 55:1 56:1 57:2 63:2 64:1 65:2 66:2 67:1 73:2 75:2 76:1 78:2 87:1 88:1 
-0.326403596772014 0.6848772735691979 0.919197991879261 0.3895413575141202 0 0.1521885910644926 0 0.6521287074250284 0.09326195984526145 0.4429007272088913 0.04352707953045851 0.2494985339159222 2.077616117026917 13:1 14:1 15:1 16:1 17:1 23:2 25:3 26:1 27:2 33:2 35:2 36:1 37:1 43:2 45:1 46:2 47:1 53:2 55:2 56:1 57:3 65:2 66:3 67:1 68:1 74:2 75:2 76:2 77:1 78:1 84:1 87:1 88:1 
-0.01720491973190447 0 0 0 0 0.2845413112870385 0.06426816396651895 0 0.1621771987143158 0.2356911487386777 0 0 0 14:2 15:2 25:2 26:1 28:1 33:1 34:2 35:4 36:1 37:2 43:2 45:1 46:2 47:1 55:1 57:2 63:3 65:3 66:1 67:3 73:4 74:2 76:2 77:2 83:2 84:2 86:2 87:2 88:1 
-0 -0.2550347282209735 0.4342188694639513 1.61159171223882 1.881741385557734 0 0.8431272904867763 0.6272019936001163 0 0 0.9381339308401283 0.4887270302386447 0.3540310879462415 14:2 15:2 17:1 18:1 23:1 24:2 25:1 27:1 28:2 33:2 35:1 36:2 37:3 38:2 44:1 45:2 46:1 47:2 53:1 54:2 56:3 58:2 63:4 64:2 67:1 68:3 73:1 74:1 77:2 78:2 86:1 87:1 
-0.6386337460031335 -1.59718125748793 1.653355590762186 1.111770813151369 2.317506515701528 0 1.937912168185979 2.057227417385693 1.315201188546523 0.5238220656956444 1.639943456091328 2.003196119242887 2.447421809153319 13:2 14:2 16:1 17:3 18:1 23:2 25:2 26:2 27:2 33:2 34:2 36:3 43:1 44:2 45:2 54:2 56:1 64:2 66:2 67:2 74:3 76:2 77:2 84:1 
-0 -0.006496235296776499 0 0 0 0 0 0 0 0 0 0.6338246823711139 0.2110893736234187 13:2 14:2 15:1 17:2 18:1 23:2 25:3 26:1 27:2 28:2 33:4 34:2 35:1 36:3 37:2 38:2 43:2 44:2 45:3 46:1 47:1 48:2 53:2 54:2 56:3 63:2 64:2 66:2 67:2 73:2 74:2 76:2 77:1 84:1 87:1 88:1 
-0 -0 0 1.016222828323263 0.04564319085576565 0 0 0 0 0 0 0.05322912851094862 0.4928270972568494 13:3 14:2 16:2 17:3 18:2 24:1 25:3 26:3 27:2 28:1 33:3 34:2 35:1 36:3 37:2 38:2 43:3 44:2 45:2 46:2 47:2 48:3 53:2 54:1 55:2 57:2 58:1 63:2 65:1 67:2 68:2 73:1 74:2 75:1 77:1 78:3 84:1 85:1 88:1 
-0 -0 0 0.8419543800846344 0 0 0 0.0728926011002651 0 0 0 0 0 13:2 14:3 17:2 23:4 24:1 25:3 27:2 28:2 33:4 34:2 35:1 36:1 37:2 38:2 43:2 44:2 45:2 46:1 47:1 48:3 53:2 54:2 56:3 57:1 58:3 63:1 64:2 67:1 68:2 73:1 74:2 75:1 77:2 78:2 84:3 87:2 88:2 
-0 -0.2011784685675757 0 0 0 0 0 0 0 0 0 0.04527882483061641 0 13:3 14:1 16:2 17:3 18:1 22:1 23:2 25:1 26:2 27:2 28:2 33:2 34:3 35:1 36:4 38:2 44:4 45:2 46:2 47:1 48:1 53:2 54:2 56:3 57:1 58:1 63:3 67:1 68:3 73:2 74:2 77:1 78:3 84:3 87:1 88:1 
-0.03493454177402492 -0 0.8628754592854256 0 0.3820901476820353 0 0 0.3311961213308554 0 0.2570910892108663 0 0 0 12:1 13:2 16:2 17:3 22:2 24:1 25:2 26:1 27:1 32:1 34:3 35:1 36:3 37:2 38:1 43:1 44:4 45:3 48:1 53:1 54:1 58:3 63:1 64:2 65:1 67:3 68:1 73:2 75:1 77:2 78:1 84:3 85:1 
-0 -0.5044122857047082 0 0 0.3252582946576176 0 0 0 0 0 0 0 0.2951633621895688 13:2 14:3 15:1 17:1 18:2 23:3 25:3 26:1 27:2 28:2 33:3 34:2 35:1 36:3 37:2 38:2 43:2 44:1 45:3 46:1 47:1 48:1 53:1 54:1 56:2 57:1 58:1 63:2 64:2 66:2 67:2 73:2 74:2 76:2 77:1 84:1 87:2 88:1 
-0 -0 0 0.1603558713149279 0 0.2849452853880051 0 0 0 0.2354195983161793 0 0 0 4:1 5:2 14:2 15:1 18:2 19:1 24:1 25:1 26:2 27:1 28:1 29:1 33:2 34:1 35:4 36:1 37:4 38:1 39:2 43:3 44:1 46:2 48:1 53:1 54:1 56:1 57:1 58:3 62:1 63:2 64:3 66:1 68:1 73:3 74:1 76:3 77:2 78:1 86:1 87:3 
-0 -0 0.463861769435581 1.271796022580452 0.09288791729037586 0.6658848125238552 0.05473363396421931 0.06055036028995197 0.02276332783614786 0.3657618462104821 0 0 0 13:1 14:2 17:1 18:1 23:4 24:1 25:3 27:2 28:2 33:4 34:1 35:1 36:2 37:2 38:3 43:4 44:2 45:2 46:1 48:4 53:2 54:2 55:2 56:3 57:1 58:4 63:2 64:2 65:2 67:2 68:4 73:2 74:3 75:2 77:3 78:3 83:1 84:3 85:1 87:2 88:3 
-0 -0 0.3747119686322134 0.0985266919970728 0 0 0 0.1696101797780479 0 0 0 0 0 13:1 14:2 15:1 17:1 18:2 23:1 25:2 26:1 27:4 34:2 35:1 36:3 37:3 38:1 43:2 44:2 45:3 46:1 47:1 48:3 53:3 54:1 56:3 58:3 63:3 67:2 68:1 73:1 76:1 77:2 78:1 87:3 
-0 -0.03761618075521012 0 0.7735473222235041 0 0.208073009310794 0 0 0 0 0 0.5284707553807667 0.8042534526446493 13:2 14:2 15:1 17:2 18:1 23:4 25:3 27:1 28:4 33:3 34:2 35:2 36:3 37:2 38:2 43:2 44:3 45:3 46:1 47:1 53:3 54:4 55:2 56:1 58:2 62:2 63:2 64:2 67:1 72:2 73:2 74:2 76:2 77:2 82:1 83:2 84:1 86:3 87:1 
-0 -0 0 0.3168370341579385 0 0 0 0 0 0 0 0 0 4:1 13:1 14:2 15:1 17:1 23:2 25:1 27:3 28:2 33:2 34:2 35:2 36:2 37:2 38:1 43:3 44:1 45:2 46:1 48:3 54:3 56:1 62:1 63:2 64:2 66:1 67:1 68:2 72:1 73:2 74:1 76:3 77:2 78:1 86:2 87:2 
-0.1388867417343478 -0.7163426655597078 0.6103016610845347 0.7441692787164753 0.4752646009855094 0.8984790605685049 0.7837673951710233 0.4028027869520659 0.4650715137172703 0.4967991397287873 0.2933897057031721 0.2057093558738025 0.5712819173730262 14:2 15:3 24:1 26:3 27:1 28:2 29:1 33:1 34:1 35:3 37:3 39:2 43:2 44:2 45:4 46:1 47:4 48:1 49:1 53:4 54:3 58:2 62:1 63:1 64:4 66:2 67:2 68:2 72:2 73:3 74:2 76:3 77:2 78:2 83:1 86:3 87:3 
-0 -0.01703080219621927 0 0 0 0 0.2981308394869306 0.04644430530712714 0 0 0 0 0.1862216474668416 12:1 13:3 14:1 16:2 17:4 22:2 24:3 25:3 26:4 27:2 32:2 33:2 34:3 35:3 36:3 37:2 38:2 43:2 44:4 45:3 46:2 48:2 53:2 54:1 56:1 57:1 58:2 63:1 64:2 65:1 67:1 73:2 74:2 75:1 77:2 78:4 84:3 
-0.8294442980331429 -0.2860664422165802 0 1.179704814799191 0.141366345423788 0.5103801725706389 0.474138945501543 0.8544702100834108 0.2303206939262702 0.4040007934192351 0.1191775069802408 0.1849215356976376 0 13:1 16:1 17:2 18:1 23:2 24:1 25:3 26:1 28:2 33:1 36:2 38:1 43:3 45:2 48:2 53:1 54:2 55:1 56:1 57:2 58:1 63:1 65:2 67:3 68:1 73:1 74:1 75:1 77:2 78:3 84:2 
-0 -0 0 0 0 0 0 0 0.2751336692168 0 0.7847483925594178 0 0 12:1 13:1 17:2 22:1 24:2 25:2 26:3 27:1 32:2 33:1 34:2 35:1 36:3 37:1 38:1 43:1 44:3 45:3 46:1 48:1 53:3 54:1 58:2 63:1 64:1 65:1 67:2 68:1 73:2 74:2 75:2 77:2 78:2 84:3 
-0 -0 0.1811388004499478 0 0 0.2022122899881389 0 0.4846827226048171 0 0.05367398466490417 0 0.9023084162300153 0.70665793720381 13:2 14:3 15:1 17:1 18:2 23:4 25:3 26:2 27:1 28:3 33:4 35:1 36:2 37:2 38:2 43:4 45:3 46:1 47:1 48:2 53:2 54:1 56:3 58:2 63:2 64:2 66:2 67:2 73:2 74:2 76:2 87:2 88:1 
-0.1287160267091689 -1.174071491043305 0.4005911680452046 0.8589548507901307 0.3182987265397887 0.4802363535445205 0.9799733440470701 0.6792207585520712 0.4392163787598283 0.06247045247742042 0.1758749523981468 0.2380616153872114 1.306983233032015 13:2 16:1 17:2 18:1 23:1 24:1 25:3 26:2 28:2 34:1 35:1 36:3 43:2 44:2 45:1 47:1 48:1 53:2 56:2 57:1 58:2 63:2 64:1 68:4 73:3 74:2 75:2 77:1 78:4 83:2 84:4 85:1 87:2 88:2 
-0 -0 0 0.4288292659686476 0 0.3033426368546214 0 0 0 0 0 0.612974194844822 0 13:1 14:1 16:1 17:3 23:2 25:2 27:1 28:2 34:2 35:1 36:3 38:2 43:1 44:2 45:1 48:1 53:3 54:2 56:2 57:1 58:2 63:3 64:2 67:1 68:3 73:2 74:2 78:2 84:3 88:1 
-0 -0 0.4463842972708058 0 0 0 0 0 0 0 0 0 0 12:1 13:2 14:1 16:2 17:2 22:1 24:2 25:2 26:3 27:1 32:2 33:1 34:2 35:1 36:4 37:2 38:1 43:2 44:3 45:1 46:1 48:2 54:3 56:3 57:1 63:2 64:1 67:2 68:3 73:3 74:1 77:1 78:3 83:1 84:2 
-0.06661402181357834 -0.08439502042423175 0.03053555360076462 0 0 0.09315060756170405 0.5607061988211138 0.4398890674504536 0.6566178880765143 0.4942226315405133 0.5560931879475431 0.1159349759669622 0 13:2 16:1 17:2 18:1 26:2 28:2 34:4 35:1 36:1 38:2 44:4 45:2 48:2 54:4 56:3 58:2 64:4 66:2 68:1 74:3 76:2 77:1 78:1 84:1 87:2 
-0.4799423657587742 -1.362251547901358 2.434632089895119 1.879069782447941 1.618527775016544 1.04822218228468 1.336746541355288 1.885835685853864 0.2151532185482163 0.6740233326859471 1.419162383380067 2.365686736412265 1.664619800228444 12:1 14:1 16:2 17:1 22:1 23:1 24:1 25:3 26:4 27:2 28:2 32:1 33:1 34:3 35:1 36:2 37:1 38:2 43:3 44:2 45:1 46:3 47:1 48:3 53:1 54:1 55:2 57:3 58:1 59:1 63:1 64:1 65:2 67:1 69:1 74:1 75:1 79:1 84:1 85:3 
-0.6920847187894151 -2.390761272463663 1.891853891729751 1.928626784971069 2.085413466810559 0.570154951267164 1.548428933913829 1.693756863591021 0.9051107137889083 0.6421990832730046 1.074583481929368 1.571614298107692 2.190367272658857 13:1 14:1 15:2 17:1 23:2 25:1 26:3 27:2 33:2 35:3 36:1 37:4 43:2 45:3 46:3 47:1 53:2 55:2 56:1 57:2 63:2 65:2 67:3 73:1 74:1 75:2 77:4 84:1 
-0.9405659793517074 -0.5262357196124542 1.080463259208127 2.351327634231835 0.3635045582180118 0 0.4292609287203684 0 1.457180313373394 0 1.587801254502193 0 1.347058310207609 4:1 14:1 15:2 17:1 18:1 23:2 24:1 25:1 26:1 27:1 28:2 33:1 35:1 36:1 37:1 38:1 43:3 44:1 46:1 48:3 53:1 54:2 56:1 58:1 63:2 64:2 66:1 68:1 72:1 73:2 74:1 76:3 77:2 78:1 86:3 87:1 
-0 -0 0 0 0 0.615679995679016 0 0 0 0.02862648951878212 0 0 0 4:1 14:1 15:2 17:1 18:1 23:2 24:1 25:1 26:2 27:1 28:2 33:1 34:1 36:1 37:4 43:4 44:2 45:3 46:1 47:2 48:1 53:3 54:4 56:3 58:3 62:2 63:3 64:4 66:2 67:2 68:2 72:2 73:3 74:2 76:4 77:2 78:2 83:2 86:2 87:1 
-0 -0 0 0.6667860988198955 0 0 0 0 0 0 0 0 0 4:1 14:2 15:2 17:1 18:2 23:2 25:1 26:1 27:2 28:2 33:1 34:1 35:2 36:2 37:3 38:1 43:2 44:1 45:2 46:1 48:3 53:1 54:2 56:1 58:1 63:2 64:2 66:2 68:1 73:3 74:2 76:2 77:2 78:1 86:2 87:1 
-0 -0 0 0.01152448508463752 0 0 0 0 0 0 0 0 0 13:1 14:1 17:1 18:3 23:1 25:2 26:1 27:4 34:1 36:3 37:2 38:1 43:2 44:2 45:2 46:1 47:1 48:2 53:2 54:1 56:3 58:2 63:3 67:2 68:2 73:2 74:2 77:2 78:2 87:4 
-0.1138622214328096 -0 0 0.9409721596187774 0 0.3296996865934483 0 0.1043962822552653 0 0 0 0 0 14:1 15:1 17:2 18:3 25:2 26:1 27:2 28:2 33:2 34:2 35:1 36:4 37:2 38:1 43:2 45:1 46:2 47:1 48:4 53:4 56:2 57:1 58:2 63:2 64:1 67:2 68:2 73:2 74:2 76:1 77:2 87:3 88:1 
-0 -0 0.1972534645108256 0.4671840135870044 0.4687435448787245 0.2569063670905108 0.3368612532440129 0 0 0.1217626779904381 0 0.3868604226891357 0 12:1 13:2 14:1 16:3 17:3 24:2 26:4 32:2 34:1 35:1 36:4 37:2 38:1 43:2 44:3 45:1 47:1 48:2 53:1 54:4 56:3 57:1 58:1 63:3 64:3 67:1 68:1 73:4 74:1 77:2 78:3 83:1 84:2 87:1 
-0.2064400895679707 -0.763079442547524 2.122873898456973 4 1.803388410281725 0.359117065145021 1.209833055650392 1.053467946494988 0.4746336162135334 0.4364512633640663 1.787127430457337 2.36230300794121 1.769103197674572 14:1 15:3 17:1 23:1 24:2 25:1 27:3 28:1 33:1 35:2 37:1 38:2 43:3 45:3 46:1 47:2 48:2 53:2 54:1 55:2 56:1 57:1 58:2 63:1 64:3 66:2 67:1 72:1 73:2 74:1 77:3 86:2 87:2 
-0 -0 0 0.09873679961549901 0 0 0 0 0 0 0 0 0 13:2 14:1 16:1 17:2 18:1 24:1 25:2 26:2 28:1 33:2 35:1 36:3 37:2 38:3 43:3 44:1 45:2 46:1 48:3 53:1 54:1 55:1 56:1 57:2 58:1 63:2 65:1 67:2 68:2 73:1 74:2 75:1 77:1 78:3 84:2 85:2 88:1 
-0.6210577745965823 -0 0 0 0 0 0.6002834383620481 0.4554501807574947 0 0 0 0 0 13:2 16:1 17:2 18:2 25:2 26:2 28:1 34:2 35:1 36:3 37:2 38:1 44:2 45:2 47:1 48:2 54:2 56:3 57:1 58:2 64:2 66:2 67:2 68:2 74:3 76:2 77:2 78:2 84:1 87:2 
-0 -1.296826857068855 0.1811957170126867 0 0 0 0.01616033674201521 0 0 0 0 0 0 12:1 13:1 16:1 17:2 22:1 24:2 25:2 26:3 27:1 32:2 34:2 35:1 36:3 37:1 38:1 43:1 44:4 45:3 46:1 48:1 53:2 54:1 56:1 57:2 58:2 63:2 65:1 67:3 68:1 73:2 74:1 75:1 77:2 78:1 84:2 85:1 
-0.01328872329508752 -0.8766452984893294 1.2240966765293 1.227882894155737 0.9405586009529842 0.1668780971652721 0.6005730323582678 0.121899021847335 1.90990301388846 0.2161290131524207 1.690721357861153 0.2333260348298566 1.022983290287534 13:2 14:1 16:2 17:1 22:2 23:1 25:3 26:1 27:1 28:1 33:1 34:2 38:2 43:2 44:1 45:2 48:1 53:2 54:2 57:2 58:2 63:1 65:2 67:2 68:1 73:1 74:1 75:1 77:2 78:3 84:2 85:1 
-0 -0 0 0 0.05042943072994022 0 0 0 0 0 0 0 0 13:2 16:2 17:3 22:2 24:2 25:1 26:1 27:1 32:1 34:1 35:1 36:3 37:2 38:1 43:1 44:4 45:3 48:1 53:1 54:1 56:1 57:1 58:3 63:2 64:1 67:2 68:2 73:2 75:1 77:3 78:4 84:3 85:1 
-1.693663731433316 -1.045706550031696 2.287356136365517 1.928773438978956 1.540787400241119 0.7459709804232744 1.905201658193456 2.381364393532484 1.066668243059935 0.922551625469568 1.162205293371531 2.794285335608167 2.921360198950914 13:1 14:1 17:2 23:1 25:2 27:2 35:1 36:2 37:3 43:2 45:2 46:2 47:1 53:2 54:2 56:1 57:3 63:1 64:2 65:1 74:2 75:3 77:1 84:2 85:2 
-0.6883235079520023 -0.1404873509792177 0.4391706725040592 1.427811026467201 0 0.4481496740201075 0.7654405883786374 0.9338391693802267 0.4539976306011403 0.1868137205742308 0.3791148393911617 0.2431219948884131 0 4:1 5:2 14:2 18:2 19:1 24:1 25:1 26:2 27:1 28:1 29:1 34:1 35:3 37:4 38:1 39:1 43:1 44:2 45:1 46:3 48:2 53:1 54:1 56:2 58:2 62:1 63:2 64:2 66:1 68:1 73:2 74:1 76:3 77:2 87:3 
-0 -0.1641091280097783 0 3.517005043879771 0 0.311098354386958 0 0.1337445658025611 0.3516879211243921 0.2594745109807203 0.4342200325173914 0.6088981774826394 0.4516914999563407 13:1 14:1 16:1 17:3 23:2 24:1 27:2 28:2 33:2 34:2 38:2 43:2 44:3 45:3 48:2 53:2 54:2 55:1 56:3 58:2 63:1 64:3 66:2 68:2 74:4 76:2 78:2 83:1 84:3 86:1 87:4 88:1 
-0 -0.738193501419154 0.06882704528959124 0 0.139758037149514 0 0.5859861628436487 0 0.02965881119577107 0.2037945737513593 0.769926133789974 0.2956759294498066 0 12:1 13:2 14:1 16:3 17:2 22:2 24:2 25:1 26:2 27:1 32:1 33:2 34:2 35:1 36:3 37:2 38:2 43:2 44:4 45:1 48:1 53:1 54:2 56:1 57:1 63:2 64:1 67:2 68:2 73:2 74:1 77:1 78:3 83:2 84:3 87:1 88:1 
-1.80971489056161 -1.650151699143136 2.825578070702768 1.65808599187572 1.928924230001554 1.168427350989825 2.245858975380895 2.631179994938855 0.6949191375496004 1.001395804703038 1.590430209056136 2.102959984830628 1.226649853977813 14:1 15:1 16:3 18:2 24:2 26:1 27:1 28:2 34:2 36:3 37:1 38:4 44:2 46:3 47:3 54:2 56:2 57:1 58:2 64:1 66:2 68:2 74:1 75:1 76:2 78:2 82:1 85:1 
-0 -0 0 0.342459614492884 0 0 0 0 0 0 0.167468121777205 0 0 13:2 15:1 17:2 18:2 24:1 25:1 26:2 27:3 33:1 34:2 35:2 36:1 37:2 38:2 43:3 44:2 45:1 46:3 48:3 53:4 54:1 56:1 57:2 58:4 63:1 67:2 68:2 73:1 74:1 77:2 78:2 87:2 
-0.02616648331341595 -0 1.220765050016525 0.606516964952199 0 0 0.3733976486566534 0.03228165208655782 0.1526030058111582 0.563394676997712 0.6276289516446358 0 0 4:2 13:1 14:1 15:3 18:2 23:1 25:1 27:2 28:1 33:2 34:2 35:1 36:2 37:2 38:2 43:2 44:1 45:1 47:1 48:3 53:1 54:3 56:1 62:1 63:2 64:1 67:1 68:2 72:1 73:2 74:1 76:3 77:2 86:2 87:2 
-0 -0 0 0 0 0.4701223084605913 0 0 0 0 0 0 0 13:2 16:2 17:2 18:1 26:1 28:2 34:4 35:1 36:3 38:2 44:4 45:3 46:1 48:2 54:4 56:3 58:2 64:4 66:2 67:2 68:2 74:4 76:2 77:3 78:2 83:2 84:1 87:2 
-0 -0 0 0.4110532385323487 0 0.4470913785539173 0.6722586903998262 0 0 0.0215467658289904 0 0 0 12:1 13:2 16:1 17:3 22:2 24:3 25:1 26:2 27:1 32:1 34:3 35:1 36:3 37:2 38:1 43:1 44:4 45:3 46:2 48:1 53:2 54:1 56:1 57:2 58:2 63:2 64:1 67:4 68:1 73:2 75:1 77:2 78:1 84:3 85:1 
-0 -0 0 0.220000092076529 0.1470158549071622 0 0 0 0 0 0 0 0 12:1 13:1 14:1 16:2 17:3 22:1 24:2 25:2 26:3 27:1 32:2 33:1 34:3 35:1 36:3 37:1 38:2 43:1 44:3 45:3 46:1 48:1 53:4 54:1 58:3 63:1 64:2 65:2 67:3 73:2 74:1 77:2 78:2 84:2 
-0 -0 0 1.80096385670503 0 0 0 0 0 0 0 0 0 13:2 14:3 15:1 17:1 18:2 23:2 25:3 26:1 28:3 33:3 34:2 35:1 36:2 37:2 38:2 43:3 45:2 46:1 47:1 48:2 53:1 54:1 56:3 58:2 63:2 64:2 66:1 67:2 73:2 74:2 76:2 77:1 84:1 87:2 88:1 
-0 -0 0.0381694069875833 0 0.5369904354167075 0.2049525151434862 0 0.5063742361578577 0.1244887668283787 0.13146664631679 0 0 0 12:1 13:1 16:2 17:2 22:1 24:3 25:1 26:2 27:1 32:2 34:1 35:1 36:4 37:1 42:1 43:2 44:2 45:2 47:1 48:2 53:1 54:2 56:3 58:1 63:2 64:2 67:1 68:2 73:2 74:2 77:2 78:3 83:1 84:1 87:1 
-0.2880388576916777 -0 0.5270380271541698 1.281185258866226 0 0.5432118819304862 0 0 0 0.06248492587095337 0.1296477427031084 0 0 13:1 15:1 17:2 18:2 24:1 25:1 26:3 27:2 28:1 33:2 34:2 36:1 38:2 43:2 44:2 45:1 46:3 48:4 53:3 56:2 57:2 58:4 63:2 64:1 66:2 67:2 68:2 73:1 74:1 76:2 77:3 87:2 
-0 -0.1110010924555483 0.3871260781697102 0.05466426829126775 0.3253413159753998 0.6168321713847786 0.8536521066837565 1.133207396830721 0.2521068179638371 0.303094660573531 0.1813009941003662 0 0 13:2 14:2 17:1 18:1 23:3 25:2 27:1 28:3 33:2 34:2 35:1 36:3 37:2 38:2 44:3 45:2 46:1 47:1 53:1 54:3 55:1 56:1 58:2 62:2 63:2 64:1 66:1 67:2 68:2 72:2 74:1 76:3 77:2 83:1 86:3 87:1 
-0 -1.564233042071315 0.7042745475384721 0 0.5362332482076185 0.008999586620009773 0.9621209822896359 0.8813587940051796 0.1053580660122577 0 1.126058583508499 0.8999466752243602 1.136628029943166 4:1 5:2 14:2 15:1 18:2 19:1 24:1 25:1 26:3 27:1 28:1 29:1 33:2 34:1 35:4 36:1 37:4 38:1 39:2 43:3 44:1 46:1 47:1 48:1 53:1 54:1 56:1 57:1 58:1 62:1 63:2 64:2 66:1 68:1 73:3 74:1 76:3 77:2 78:1 86:1 87:2 
-0 -0 -0 0 2.404788607470209 0 0 0 0 0 0 0 1.030099989140939 13:2 14:3 15:3 16:1 23:2 24:1 25:2 26:1 27:3 33:1 34:2 36:2 38:1 45:2 46:1 47:2 48:1 53:2 55:1 57:2 58:2 63:2 64:1 65:1 66:3 67:1 68:2 74:2 75:2 76:1 77:3 84:2 85:3 86:2 
-0.1534523021080391 -0.6610911374979459 -0 0.4945250045501708 0.2487592876326646 0.01332984846601061 1.649142490789503 0 1.074688908031216 0.07461027385748159 0 0 0.7699041297675269 15:3 16:1 24:2 25:1 27:2 34:1 35:1 36:3 37:1 38:1 44:2 45:1 47:2 48:1 54:2 55:3 57:2 58:1 63:1 65:1 66:1 68:3 73:3 74:2 75:3 76:1 77:3 78:1 83:3 84:2 85:1 86:3 87:1 
-0 -0 -0.4510466597072052 0.5703930559536249 0 0 0 0.273916973346194 0 0 0 0 0 13:2 14:3 15:2 16:1 23:1 24:1 25:2 26:1 27:1 33:2 34:1 35:1 36:3 37:2 38:1 43:3 44:1 46:1 48:2 53:1 54:1 55:1 56:2 58:1 63:2 65:1 66:1 67:2 73:1 74:1 76:1 77:2 84:3 85:3 86:1 
-0 -0 -0 0 0 0.5427400130981849 0 0 0 0 0 0 0 13:2 14:1 15:1 16:2 23:2 25:2 26:1 27:3 35:2 36:2 37:2 38:1 43:1 44:2 45:1 46:2 47:2 48:2 53:4 54:2 55:1 56:2 57:2 58:2 63:4 64:2 65:2 66:2 67:3 68:1 73:3 74:1 75:1 76:3 77:1 83:1 84:3 85:2 86:1 
-0 -0.214399200537181 -0 0 0 0 0 0 0 0.168622253895235 0.3676181008595338 1.370079833114907 0 13:1 14:3 15:2 16:2 23:1 25:1 26:1 27:2 33:2 34:1 36:2 37:1 38:1 43:1 44:1 45:2 47:2 48:2 53:2 54:1 55:1 57:2 58:2 64:1 65:2 66:3 67:1 68:2 74:3 75:1 84:2 85:1 86:1 
-0 -0 -0 0 0.3938973468675571 0 0 0 0 0 0 0 0 15:3 16:3 24:1 25:3 26:2 27:2 33:2 34:2 36:2 37:2 38:2 43:1 45:1 46:1 47:2 48:2 53:1 54:2 55:1 56:1 57:1 58:1 63:3 64:2 65:1 66:2 67:1 68:1 73:2 75:1 76:1 77:1 83:2 84:2 85:1 86:1 
-0.04619566702718877 -1.400274764774766 -0.5643562852931961 0.4196946465061155 0.6619697186933485 0.09313188331514825 0.6913055711957814 1.014122932284848 0.3242468692507468 0 0.2282164885201286 0.8795077011664696 0.9539702290705572 13:2 14:4 15:2 23:2 24:2 25:1 26:3 27:1 34:3 35:2 36:1 37:3 43:2 44:2 46:2 47:2 53:3 56:1 57:2 58:1 63:2 64:2 66:2 67:3 73:2 74:1 76:3 84:2 85:2 86:1 
-0 -1.343915841225116 -0.08926219727544171 0 0.199410336518065 0 2.12055926563143 0.8988638782537904 0.05428964101925192 0 0.7387579945148756 1.066447320567149 0.02352834758944986 13:2 14:2 15:1 16:2 23:2 24:2 25:2 26:1 27:3 33:1 35:2 36:2 37:1 38:1 44:2 45:1 46:2 48:1 53:1 54:2 56:2 58:1 63:3 65:1 66:3 67:2 73:2 74:1 75:1 76:2 77:1 86:1 
-0 -0 -0 0.3037255579387768 0.9909806548290688 0 1.090158718638339 0.3965054804691925 0.6682758328218948 0.5199424094707857 0.08911044538699815 0.9391082084628339 0 14:1 15:3 16:1 24:1 27:2 34:3 35:1 36:3 37:1 38:2 44:1 45:2 47:2 48:2 53:1 54:2 55:2 57:3 63:1 64:1 65:2 68:1 73:3 74:1 75:2 76:1 77:3 83:2 84:3 85:2 86:3 
-2.324202308065844 -0.9547266687178823 -1.10662669761739 0.4274501078044809 1.877946312367631 0.4710023564416762 1.443388596163643 2.711254763001045 2.792745810261629 1.782587159704993 4 1.981019318646606 1.403226010119934 16:2 23:2 24:1 33:2 36:1 37:3 38:1 43:2 47:1 53:2 63:2 65:1 66:1 73:1 75:2 76:2 85:1 
-0 -0 -0 0 0 0 0 0 0.3990211606825322 0 0 0 0 13:2 14:2 15:2 16:1 23:2 24:2 25:1 26:1 27:1 33:1 34:2 36:1 37:2 38:1 43:2 44:1 46:1 48:2 53:1 54:2 55:1 56:1 58:2 63:1 65:3 66:3 67:2 73:2 74:2 75:1 76:2 77:2 84:3 85:4 86:1 
-0 -0 -0.03964263022611637 0.4829777049502907 0.257915505242492 0.1423327975830689 0 0 0 0 0.01293014806865528 0 0 14:2 15:3 16:2 24:1 26:1 27:2 34:3 35:1 36:1 37:3 38:2 44:1 45:4 47:1 48:3 53:2 54:1 57:1 58:2 64:2 65:2 66:3 67:1 68:3 73:3 74:1 75:1 76:1 77:2 83:2 84:3 85:2 86:2 
-0 -0 -0 0 0.3364138829602019 0 0 0 0 0 0 0 0 13:2 14:2 15:2 16:2 23:2 24:1 25:2 27:2 33:1 35:2 36:3 37:1 38:2 43:1 44:1 45:1 47:2 48:1 55:3 57:1 58:2 64:1 65:2 66:3 67:1 68:3 74:2 76:1 77:2 84:2 85:3 86:2 
-0.745092803144678 -1.134252723833147 -1.462011865340336 0.7277173402195928 0.9325257277612735 0.9852029727321325 2.381115495948283 1.42459384320789 0.7064195312586925 0.958791917071229 1.154155891037318 1.588486020200853 0.5839554339589059 13:1 14:2 15:2 16:1 24:3 25:2 26:1 27:2 34:4 35:1 36:2 37:3 44:4 46:4 47:3 54:4 56:2 57:4 64:3 65:2 67:2 75:1 76:2 85:1 
-0 -0.752988591888171 -0 0 1.878558532501478 0 0 0 0 0 0 0 1.877697054782975 14:1 15:2 16:2 23:1 24:2 25:1 26:1 27:2 33:2 35:1 36:2 37:1 43:2 45:1 47:2 48:1 53:1 54:2 55:1 56:2 57:1 63:3 64:2 65:1 66:2 67:1 68:1 73:2 74:1 75:1 76:1 77:1 83:1 84:2 85:2 86:1 
-0.1047640885338089 -0 -1.373614328479744 0.4210521716759887 1.089869690109746 0.2684423326966111 1.673147403896138 1.512589387104083 0 0 0.06718831058390425 1.151465046325234 0 13:2 14:2 15:2 16:2 17:1 23:2 24:1 25:1 26:1 27:3 28:1 33:1 35:1 36:1 37:1 38:2 44:1 45:3 47:4 48:2 54:2 55:1 57:3 58:2 64:2 65:2 66:2 67:1 68:2 74:1 76:1 77:2 78:1 85:2 
-0 -0 -0.007587384238911365 0 0 0 0.2199489188710798 0 0 0 0 0 0 13:2 14:2 15:2 16:2 23:3 24:1 25:2 26:1 27:2 33:1 34:2 35:2 36:3 37:1 38:2 43:2 45:1 48:3 54:2 55:2 57:2 58:2 64:1 65:2 66:3 68:2 74:3 75:1 76:1 77:2 84:1 85:1 86:2 
-1.459587246210907 -0 -0 0 0.5127138261857506 0 0 0 0 0 0.04536603535222561 0 0 15:3 16:2 24:2 25:1 26:1 27:1 28:1 36:1 37:1 38:2 44:1 45:1 47:2 48:2 53:1 54:2 55:1 57:2 58:1 63:1 64:1 65:3 66:3 67:1 68:2 73:4 75:1 76:1 77:2 84:1 85:1 86:1 
-0 -0 -1.388699204521139 1.002208842685004 0 0 0 0 1.125942885311718 0.3019280810659584 0.8369031512309907 0 0.1969775009850825 13:1 14:2 15:2 16:1 23:2 24:1 25:1 26:2 27:1 33:2 34:2 36:2 37:1 38:1 43:2 44:2 46:1 47:1 48:2 53:2 54:2 55:1 56:2 58:1 63:1 64:2 66:2 67:1 68:1 74:1 75:2 76:1 77:3 84:1 85:3 86:2 
-0 -0 -0 0.2542511720654353 0 0.08166505545949829 0 0 0 0.2303088888997349 0 0 0 13:1 14:3 15:2 16:2 23:1 25:1 26:1 27:2 28:1 33:1 34:2 35:1 36:3 37:1 38:2 43:2 44:1 45:1 47:2 48:1 54:1 55:3 57:2 58:3 64:3 65:1 66:3 67:1 68:2 74:1 75:1 76:1 77:2 85:3 
-0.1453795323344038 -0.3009591689900783 -0 0 0 0 0.1983982423667164 0.3621313648853 0 0 0.4216495452701281 0 0 15:2 16:1 24:2 25:1 26:1 27:2 34:1 35:2 36:3 37:1 38:3 44:3 45:1 47:3 48:1 53:1 54:1 55:3 57:4 58:1 63:1 65:1 66:1 67:1 68:3 73:3 74:1 76:1 77:1 78:1 83:2 84:1 85:1 86:2 
-0 -0 -0 0 0 0 0 0.5157514443610516 0.1277387127856548 0 0.2295963450978894 0 0 13:2 14:2 16:2 23:2 25:3 26:1 27:2 33:2 35:2 36:2 38:2 43:2 45:2 47:2 48:2 53:2 55:2 57:1 58:2 63:1 65:3 66:3 67:2 68:1 75:1 76:2 77:1 85:1 
-0 -0.8891503930631944 -1.217908892499809 1.121981083847873 1.30129058832377 0.5936496546902524 0.7666780386370478 0.3437408575152326 0 0.3023531684772819 1.130449526359772 0.7469667098614964 0 15:3 16:1 24:2 25:1 27:2 34:1 35:2 36:4 37:1 38:3 44:3 45:2 46:2 47:3 48:1 54:1 55:3 57:3 58:1 63:2 66:1 67:1 68:3 73:3 74:1 78:1 83:1 84:1 85:1 86:2 87:1 
-0 -0.1163995632876279 -0.4458214373506617 0.5536301038557699 0 0.8174752584641463 0.3422067167703951 0 0.6096188369247607 0.3168950130738156 0 0 0.7937552976209544 13:2 14:2 15:1 16:1 23:4 24:2 25:2 26:1 27:1 33:4 36:1 37:3 43:4 47:2 48:1 53:3 54:1 56:2 57:2 58:1 63:2 64:3 65:3 66:1 67:3 73:1 74:1 75:1 76:2 85:1 
-1.499930776244989 -1.63621564633298 -2.338504250172284 2.25988073661539 2.030680573824339 1.701252102653304 3.16125017550478 2.017341567977399 0.9956187689356739 0.8747427597627104 1.841923019220437 1.820702226038736 2.248020460385459 5:2 6:2 15:1 16:1 17:3 18:1 25:1 26:4 27:2 28:2 29:1 34:2 35:2 36:1 37:1 39:2 44:1 46:2 48:2 49:2 54:1 55:2 56:1 57:1 58:1 59:1 64:3 65:1 66:2 67:1 68:3 74:3 75:2 76:2 77:2 78:1 82:1 85:1 
-0 -0 -0.6539389163840955 1.086080771932796 0 0.3078384770646469 0 0 0.04465852438335659 0.4417114252943521 0.2232905497478306 0.3566589115132741 0.8054287439960802 13:2 14:4 15:2 23:2 25:1 26:2 27:1 33:4 35:1 36:1 37:2 43:4 46:2 48:2 53:3 54:2 56:1 58:2 63:2 64:2 65:1 66:2 67:2 73:1 74:1 75:2 76:1 84:2 85:2 86:1 
-0 -1.291902103106096 -0.6158333526627694 0.1662557832491 2.689288257194984 0 0.2341654476480494 0.359968594443029 0 0.04261120305727649 0.3144546991711178 2.664850836042298 2.124149507339394 13:1 14:2 15:2 16:3 23:2 24:2 25:3 26:1 27:2 33:2 34:2 36:2 37:1 38:2 43:2 44:2 45:2 46:2 47:2 54:2 55:2 56:2 57:2 58:1 64:2 65:3 66:1 67:2 75:2 76:1 85:2 
-0.02326105049225374 -0.582826548800901 -0 0 4 0 0 0 1.474115769565371 0 0 0 0.717250175829686 13:1 14:3 15:2 16:1 23:1 25:2 26:1 27:1 33:1 34:1 36:2 37:1 38:1 43:2 44:2 46:1 54:1 55:2 56:1 57:1 58:1 63:2 64:1 65:3 66:2 67:2 68:1 73:2 74:2 75:1 76:1 77:3 84:2 85:4 86:2 
-0 -0.5204910174198556 -0.8493832256642321 0.09856621472504273 0 0.3721576142015318 0 0 0 0.2469132643506664 0.4851149506095217 0 0.2374648599555649 15:2 16:1 23:1 24:1 25:3 26:1 27:3 33:3 34:2 36:3 37:2 43:4 44:1 47:2 48:2 53:4 56:2 57:2 58:2 63:3 65:2 66:1 67:3 73:2 74:1 75:1 76:3 77:1 85:1 
-0.8009209075226054 -0 -0 0 0 0 0 0 0 0 0 0 0 13:1 14:3 15:2 16:2 23:1 25:1 26:1 27:2 33:2 34:1 36:2 37:1 38:2 43:1 45:2 47:1 48:3 53:1 54:1 55:1 57:1 58:2 64:1 65:3 66:2 67:1 74:3 75:1 76:1 77:2 84:2 85:2 86:1 
-1.028996827026409 -0 -0.5109361385248453 0 0 0 0 0 0 0 0 0 0 13:2 16:2 23:1 25:2 26:1 27:3 34:2 35:1 36:2 37:2 43:2 44:2 46:2 48:2 53:3 54:1 56:2 57:1 58:2 63:2 65:2 66:1 67:3 73:2 74:1 75:1 76:3 77:1 84:1 85:2 86:1 
-2.088795884673101 -0.8933293002828354 -1.571366620547031 1.590044850617314 0.9737046998049707 1.574503397416918 2.184705198610935 2.534226367952301 2.548317827428764 2.154428765631245 4 1.67297774759043 0.5905143137086163 22:2 27:1 32:2 35:2 38:1 42:1 44:2 46:1 48:1 52:2 54:1 58:2 63:1 65:1 66:1 68:2 69:1 73:1 78:1 
-0 -0 -0 0 0 0 0 0 0 0 0 0 0.2023093381493034 13:1 14:3 15:3 16:1 23:2 25:2 26:1 27:1 33:2 35:1 36:1 37:1 38:1 43:2 44:2 45:1 46:2 47:1 48:1 54:1 55:2 56:1 57:1 58:2 63:2 66:2 67:2 68:1 73:1 74:2 75:1 76:1 77:3 84:3 85:4 86:1 
-0.6503955287878562 -0.7680720067463022 -0.9539507050566498 1.674585106373109 1.549544452706371 1.48836088458877 1.52281799649113 1.107943292196635 0.5644571017077901 1.124141815630389 0.990785264693908 0.8893482996924252 1.495866033392248 14:1 15:3 16:2 17:2 21:1 22:2 24:1 25:1 26:2 27:1 28:2 31:2 32:2 34:1 36:1 37:3 38:1 39:3 41:2 42:2 44:2 45:2 46:1 48:1 49:1 51:2 52:2 55:3 56:4 58:1 59:1 61:1 62:2 65:3 66:2 67:3 68:1 69:2 71:2 72:2 75:4 77:1 78:3 81:2 82:1 85:1 86:4 87:3 
-0 -0.9646878227955802 -0.5032011799341307 0.1155889040435129 0.232696653309812 0 0 0.5710714276826289 0.09800676734134359 0.08236891527678591 0.8894698520516429 0 1.007339887896398 13:1 14:2 15:1 16:1 23:2 25:1 26:1 27:2 33:2 35:2 36:2 37:1 38:1 43:2 45:2 46:1 47:1 48:1 53:2 55:2 57:2 58:2 63:1 65:2 66:3 67:1 68:2 75:2 76:1 77:2 86:2 
-0 -0 -0 1.153554860383724 0 0.1691517061797094 0 0 0.1311821576833424 0.1051730279013403 0 0 0 13:2 14:2 15:2 16:2 23:3 24:1 25:2 27:2 34:1 35:2 36:3 37:1 38:2 43:2 44:1 45:1 48:3 53:1 54:2 55:3 57:1 58:3 64:1 65:3 66:3 67:1 68:2 74:4 76:1 77:2 84:2 85:2 
-0 -0 -0 0 0 0.04163447718775055 0 0 0 0 0 0 0 13:3 14:4 15:4 16:2 23:3 24:1 25:2 26:2 27:3 33:2 34:1 35:3 36:2 37:2 38:3 43:2 44:2 47:3 48:4 53:1 54:2 55:4 57:2 58:2 64:1 65:2 66:3 67:1 68:2 74:2 76:1 77:2 84:2 85:3 86:2 
-0.1873121714140955 -0 -0.002197941406606352 0 0 0 0.225763380235679 1.882212961670695 0 0.1021092258209396 0 0.8720900350812963 0.05616244922088983 13:3 14:2 15:1 16:1 23:3 24:2 25:2 26:1 27:1 33:2 36:3 37:2 43:2 44:1 46:2 47:2 48:1 53:2 54:2 56:2 57:2 63:1 64:2 65:2 66:1 67:2 75:1 76:2 85:1 
-0 -0 -0.8058679798157492 1.196483039671991 1.778855952572053 0 0.1238575419448364 0.1453350698699457 0.005412595398707097 0 0 0.1699708377820184 0.5561770631821685 13:2 14:3 15:2 16:1 23:2 24:1 25:2 26:1 27:3 33:1 34:2 35:1 36:2 37:1 38:1 45:2 46:1 47:2 48:3 53:2 55:1 57:2 58:2 63:2 64:2 65:1 67:1 74:2 75:2 76:1 77:2 84:1 85:2 86:2 
-0.7424230314468131 -0 -0.04288128800710978 0 0 0.1106991704902141 0 0 0 0.1955607005895518 0 0 0 14:1 15:2 16:2 25:1 26:1 27:2 33:1 34:2 35:1 36:2 37:1 38:2 43:2 45:1 47:2 48:3 53:1 54:1 55:1 56:2 57:2 58:1 63:2 64:2 66:2 67:1 73:1 75:1 76:2 77:3 83:2 84:3 85:3 86:1 
-0.5511466480231715 -0 -0.623880162807224 0.5829553446086393 0 0 0.8333789395172789 0.6080268780866428 0.1644414878693653 0 1.025534986768185 1.705152890468024 1.051185338547721 14:1 15:2 24:2 25:2 26:1 27:2 33:2 35:2 36:2 37:1 38:1 43:1 45:2 46:1 47:1 48:2 53:1 54:2 55:1 56:2 57:1 63:3 64:2 65:1 66:2 67:1 68:1 73:2 74:1 75:1 76:1 77:1 83:2 84:2 85:2 86:1 
-0.03119193526893302 -0.4172792178336561 -0.2207213660060139 0.309926981043511 1.656060722256095 0 0.59953859949647 0 0.5439929815013884 0.2064135256579021 0.02052771688738524 0 0 13:1 14:3 15:2 16:1 23:1 25:1 26:1 27:1 33:3 35:1 36:2 37:1 38:1 43:2 44:2 46:2 47:1 54:2 55:2 58:2 63:2 64:2 65:2 66:2 67:2 73:1 74:2 75:1 76:1 77:2 84:3 85:2 86:1 
-0 -0 -1.435067195006914 0.7913866037363744 0 0 0 0 0 0 0.8719305444197784 0.1857992557746453 0.3966693463347697 13:2 14:1 15:1 16:2 23:2 25:1 26:1 27:3 34:1 35:2 36:2 37:2 43:2 44:2 46:2 48:1 53:2 54:2 56:1 58:1 63:3 67:2 73:4 76:2 77:1 84:2 85:2 
-0 -0.09854408347940151 -0 0 0 0 0 0 0 0 0 0.2331435903420949 0.2020346679697725 13:2 14:2 15:3 16:1 23:2 25:3 26:1 27:2 33:2 35:2 36:2 38:2 43:2 45:2 47:2 48:2 53:2 55:2 56:1 57:1 58:1 63:2 65:3 66:3 67:1 68:1 75:1 76:2 77:1 85:1 86:1 
-0 -0 -0.6708674199424478 0.2474622531844431 0 0.06945539844295995 0 0.08748531646524674 0 0.04188538578890146 0 0 0 13:2 14:3 15:2 16:2 23:3 24:1 25:2 27:2 33:1 34:2 35:1 36:3 37:2 38:3 43:2 45:2 47:1 48:3 53:2 54:2 55:1 58:2 64:2 65:3 66:3 68:1 74:3 75:1 77:2 84:2 85:2 86:2 
-0 -0.7881324614313174 -0 0 0 0 1.437705092582665 0 0 0 0 0.3165874589897423 0 15:3 16:1 17:1 24:2 25:1 26:3 27:1 34:2 35:2 36:2 37:2 38:3 44:2 47:4 48:1 53:1 54:2 55:1 57:2 58:1 63:1 64:1 65:3 66:3 67:1 68:3 73:4 75:1 76:1 77:2 83:1 84:1 85:1 86:1 
-0 -0 -0.03044522846238815 0 0 0 0 0 0.2450343243689941 0 0 0 0.4513006149099377 13:2 14:2 15:2 16:3 23:2 24:2 25:3 26:1 27:2 33:2 34:2 36:2 37:1 38:1 43:2 44:2 45:1 46:2 53:2 54:2 56:2 57:1 58:2 64:2 65:2 66:1 67:2 75:1 76:2 77:1 84:1 85:3 
-0 -0 -0.5152675739043358 0 0 0.5581243043173697 0 0 0 0 0 0 0 14:1 15:3 16:1 24:1 27:2 34:1 35:2 36:3 37:1 38:2 44:1 45:4 47:2 48:4 53:2 54:2 55:1 57:3 58:1 63:1 64:1 65:2 67:1 68:3 73:3 74:1 75:2 76:1 77:3 83:2 84:2 85:2 86:2 
-0 -0.104761895415686 -0 0 0 0 1.339070571882882 1.165760511283283 0 0 0 0 0 13:2 14:2 15:2 16:2 23:3 24:1 25:1 26:1 27:3 28:1 33:1 34:1 35:1 36:1 37:1 38:2 43:1 44:2 45:1 47:2 48:1 54:1 55:1 57:2 64:1 65:2 66:2 67:1 68:2 74:1 75:1 76:1 77:3 84:2 85:4 86:1 87:1 
-0.0219919805423616 -1.141834158763927 -0 0.3820880455203411 0 0.5835702754250084 0.6881225483424978 0.08609745016855125 0.3296930815148052 0.09037839089003004 0 0.4563010155387917 1.2384561719535 13:2 14:3 15:2 23:2 24:2 25:1 26:3 27:1 33:1 34:4 35:1 37:2 43:1 44:3 46:3 47:2 48:1 53:3 54:1 56:3 57:2 63:4 65:2 66:2 67:3 73:3 74:1 75:2 76:2 77:1 83:1 84:3 85:3 86:1 
-0 -0.2401986018181039 -1.256580364931398 1.992540580344374 1.599211607523034 0 0 0.2296875840600288 0 0.06240760491369851 1.647504815947934 2.204510513865184 0.152688631263151 14:1 15:2 16:2 24:2 25:1 26:1 27:2 33:1 34:1 35:1 36:2 37:1 38:1 43:2 45:2 46:1 47:2 48:2 53:1 54:1 55:1 56:1 57:1 58:1 63:2 64:2 65:1 66:2 67:1 68:1 73:2 75:1 77:1 83:2 84:2 
-0.1495769840928599 -0 -0 0 0 0 0 0 0 0 0 0 0 13:2 14:2 15:2 16:3 23:2 25:2 27:2 33:2 35:2 36:1 37:1 38:2 43:2 45:2 47:2 48:1 55:2 56:1 57:1 58:2 65:3 66:3 67:2 68:1 75:1 76:2 77:1 85:1 
-0 -0.3860946139819737 -0.09234279775413468 0 0.4696733510705764 0 0.06497770621061301 0 0.4210133738822804 0 1.265871263408974 0 0.8112752833552631 13:2 14:3 15:3 16:2 23:1 24:1 25:1 26:1 27:3 28:1 33:2 34:1 35:1 36:1 38:3 44:2 45:3 47:3 48:1 54:2 55:1 57:2 58:1 64:1 65:2 66:2 68:2 74:2 75:1 76:1 77:3 78:1 85:4 86:1 87:1 
-0 -1.280229727502129 -0.06007167562208575 0.745142557782066 0 0 0 0 0 0 0 0 0 15:1 16:2 23:1 24:1 25:2 26:1 27:2 33:2 34:2 36:2 37:2 43:2 44:1 46:2 48:2 53:3 56:2 57:1 58:2 63:2 65:2 66:1 67:2 73:2 75:2 76:1 77:1 84:1 85:1 
-0.4695666604760986 -1.411633197651592 -1.188766204939398 1.192742070570521 1.891329739814639 0.7212234883579531 1.064518405398404 1.16720464425201 0.6408557590932303 0.6789136080926733 1.329061171846791 1.694525916365333 1.911449426113843 15:3 16:4 17:2 18:1 25:4 26:2 27:2 29:1 31:1 35:4 36:1 37:1 38:2 39:2 45:3 46:2 48:1 50:2 55:2 56:2 58:2 60:2 65:2 66:2 68:2 69:2 76:1 77:2 79:2 86:1 87:3 88:1 
-0 -0 -0 -0.06646959733649649 0.3266474111111822 0 0 0 0 0 0 1.338474431137645 0.684817236597738 13:1 14:3 16:2 17:2 18:2 23:2 24:2 26:2 28:2 33:2 34:2 35:2 36:3 38:1 43:2 45:2 46:2 53:2 54:2 55:2 56:1 57:2 64:2 65:2 66:2 67:2 74:2 75:2 76:1 77:2 84:2 87:1 
-0 -0 -2.216075690651778 -1.370844701244314 0 0 0 0.3923437232393244 0.001815520734667606 0.0869249021627292 0.6345080175825095 0.689298199545771 0 14:2 15:3 17:1 18:1 25:3 27:3 33:1 34:2 35:2 37:2 38:1 43:2 44:1 45:2 46:2 47:2 48:4 53:1 54:1 55:1 56:1 58:2 63:2 64:2 66:2 68:1 73:3 77:1 78:2 83:1 84:2 86:2 87:3 
-0 -0.7685729004028206 -0 -0 0.2046769754338939 0 0.2570542826729683 0.1195286228369649 0 0 0.0883337098280471 0 0.2352403706476529 13:2 14:1 16:2 17:3 23:3 24:3 26:3 27:2 33:3 34:1 37:2 38:2 43:3 46:2 48:1 55:3 56:3 57:2 58:1 63:2 65:1 67:1 68:2 73:1 74:2 75:1 77:3 78:3 84:1 85:1 87:1 88:1 
-0 -0 -1.54628432657708 -0 0 0.3285067923051667 0 0 0.1608276528627327 0 0 0 0 13:1 14:2 16:1 17:3 18:1 23:3 24:1 26:1 28:2 33:2 34:2 36:2 37:1 44:1 45:1 48:1 53:2 55:1 56:3 57:2 58:3 63:2 64:1 67:1 68:2 74:3 75:2 77:2 78:2 84:2 85:2 87:1 
-0 -0.5102170356728728 -0 -0 0.422984327813926 0 0.7839509309752247 1.46284800413229 0 0.01585642629641238 1.061179239064159 0.8370370082107276 0 13:1 14:3 16:2 17:2 18:2 23:2 24:2 26:2 28:2 33:2 34:2 35:2 36:3 37:1 43:2 45:1 53:2 54:2 55:2 56:1 57:1 64:2 65:2 66:2 67:2 74:2 75:2 77:2 84:2 87:2 
-0 -0 -0 -0 0 0 0 0 0 0 0.1846339660435326 0.5560012544722941 0.4628734842703679 13:2 14:1 16:2 17:3 23:1 24:2 26:2 27:2 33:3 38:2 43:3 44:1 45:1 46:2 48:1 55:4 56:4 57:2 58:2 63:2 64:1 65:1 68:4 74:2 77:1 78:1 84:2 85:2 87:1 88:1 
-0 -0 -0 -0 0.30677720255424 0 0 0 0.09292772224939568 0 0 0 0.3479503370682693 13:2 14:1 16:1 17:3 23:2 24:1 26:1 27:1 33:1 34:3 36:4 37:1 43:1 45:1 46:1 47:1 48:2 53:1 54:1 55:3 56:3 57:1 64:2 65:2 67:2 68:2 73:2 74:2 75:2 77:3 78:3 84:2 85:1 87:1 88:1 
-0.8040360537695899 -0 -0.03525792571031073 -0.2453805194690089 0.304276678493096 0.2496677949644507 0 1.07408004184235 0 0.1667895669497782 0 0.628132863900406 0 13:1 14:1 15:1 17:3 18:2 25:2 27:2 28:2 35:2 36:1 37:2 38:1 45:2 46:2 48:2 55:3 56:3 57:2 58:2 65:2 67:2 68:2 74:1 75:2 77:2 84:1 87:1 88:1 
-0 -0 -0.3693506169792383 -0 0 0.2524691505878112 0 0 0 0.03330985958966529 0 0 0 12:1 13:2 14:1 16:2 17:2 22:1 23:2 24:1 26:2 27:2 33:2 34:4 35:1 36:4 37:2 38:1 43:4 44:1 45:2 46:2 47:2 48:2 53:2 54:1 55:4 56:3 57:2 58:2 63:1 65:2 66:1 67:2 68:4 73:1 74:2 75:1 77:3 78:4 84:2 85:1 
-0.6490762981583451 -0.05570221370515599 -0 -0 0 0 0.03656989511737622 0 0 0.009687327943490611 0.7300072003325757 1.84076926866494 0.8870039508733225 14:2 15:2 17:1 18:1 24:1 25:2 27:3 28:2 33:2 34:1 37:1 38:2 43:1 45:1 46:2 47:1 48:1 53:3 54:1 55:3 56:1 58:2 63:1 64:2 66:3 67:1 72:1 73:3 74:1 76:1 86:2 87:2 
-0.07172425117354986 -1.039460840848689 -0.3275226635883231 -0.9930190856658251 0.2696800998660288 0.3362414104382881 0.6726392341387156 0.6608010573366578 0.213605580291103 0.4162516840686716 0.4074796046522551 0.1397410377957634 0.6548555557565268 12:1 13:2 14:1 16:2 17:2 22:2 23:1 24:1 26:1 27:3 33:1 34:3 35:1 36:4 37:1 43:1 44:1 45:1 46:1 47:2 48:2 53:4 54:1 55:3 56:1 57:1 58:1 63:1 65:2 67:2 68:1 73:2 74:1 75:1 77:2 78:2 84:2 
-0 -1.210773765436733 -1.890963919571367 -0.3936186708940453 0.1356089109999761 0 1.202006794042492 0.6370919549972169 1.056452924931202 0 2.147402009614416 0.9600589261926152 0.8056771439743733 13:1 14:1 15:1 17:2 23:2 25:2 27:2 28:2 33:1 34:1 35:2 37:2 38:1 43:1 44:1 45:1 46:2 47:1 53:2 54:1 55:3 56:1 58:2 63:3 67:1 68:2 73:2 74:2 76:1 77:2 86:1 87:2 
-0 -0 -0.4829875141331072 -0 0 0 0 0 0 0 0 0.6066754840257822 0.7986106907902335 13:3 14:3 15:1 16:1 17:4 18:1 23:4 24:2 25:2 26:2 27:2 28:2 33:4 34:2 35:1 36:2 37:2 38:2 43:4 44:1 45:2 46:1 47:2 48:2 53:3 54:2 55:4 56:4 57:2 58:1 63:2 64:2 66:2 67:2 73:2 74:2 76:2 77:2 83:1 84:1 87:2 
-0 -0.1094021571088678 -2.198923120566767 -0.3109780764143726 0 0.4249221108002513 0.06124542071811574 0.1241978350890997 0 0.05614137476170979 0.01783206569005702 0 0 4:1 14:3 15:2 18:2 25:3 27:2 28:2 33:1 34:2 35:3 37:2 38:4 43:1 48:4 53:2 54:1 55:1 56:3 57:2 58:3 63:3 64:1 66:2 67:2 68:2 73:2 74:2 76:1 77:2 78:2 86:1 87:3 
-0 -0 -0.4649771976470053 -0 0 0.07316218979902769 0 0.01490221418207636 0 0 0 0 0 12:1 13:3 14:1 16:3 17:4 22:1 23:2 24:3 26:3 27:3 33:3 34:4 36:4 37:2 38:1 43:4 44:1 45:2 46:2 47:2 48:2 53:3 54:1 55:3 56:3 57:2 58:1 63:1 65:2 67:1 68:3 73:1 74:1 75:1 77:2 78:2 84:2 85:1 
-0 -1.115570005247276 -0 -0.02343812333280926 0.9363234307192448 0 1.111006966745352 0 0 0 0 0 0.7751290212086753 14:2 15:3 17:1 18:1 24:1 25:2 27:3 28:1 33:1 34:2 35:1 37:3 38:1 43:2 45:1 46:2 47:2 48:3 54:1 55:1 56:1 57:1 58:1 63:3 64:2 65:1 66:2 68:1 73:3 74:1 77:2 78:2 84:2 86:2 87:3 
-0 -0 -0 -0 0 0.7640195868250306 0 0 0 0.3334945740137809 0 0 0 13:2 14:2 16:1 17:2 18:1 23:3 28:2 33:4 38:2 43:4 44:1 45:2 46:2 47:2 48:2 53:3 54:2 55:4 56:4 57:2 58:2 63:2 64:2 66:2 67:2 68:1 73:3 74:3 76:2 77:2 84:1 87:1 
-0.910341563229122 -0.2561070150500897 -2.191002817700832 -0.7921544502815432 0.6290236363957187 0.2549836643160084 0.7294817744619204 0.06192750279080207 0.7972232439001701 0.1085776306800968 1.298535082847197 0.03795861592394649 0.7482680468927451 14:2 16:1 17:3 18:1 23:2 24:1 26:2 28:2 33:2 34:2 36:2 38:2 43:2 44:1 45:2 46:1 48:2 53:2 54:1 55:1 63:2 64:2 65:2 66:2 67:1 74:2 75:2 76:2 77:2 84:3 85:1 87:2 
-0.003965973243168863 -0.5539852607632303 -1.350102854281067 -1.149527625486014 0.4783468975396312 0.2945371213083188 0 0.1347906397856667 0.4513628383776794 0.2853100816749616 0.4735986172439776 0 0.7670170485289187 12:1 13:1 15:2 16:1 17:1 22:1 24:1 26:2 27:3 33:1 34:3 35:1 36:4 37:1 43:3 45:1 46:1 48:1 53:2 54:1 55:2 56:2 57:1 58:4 63:1 64:2 65:2 67:1 68:2 74:2 75:1 77:1 78:3 84:2 85:3 
-0 -0 -1.790567477691251 -0 1.04200436022451 0 0.157094751683534 0 0.1062323354830046 0 0 0 1.201814643718585 4:1 5:1 14:2 15:2 17:1 18:1 23:1 24:1 25:2 27:3 28:1 33:1 35:1 37:1 38:2 43:2 45:2 46:1 47:1 48:1 53:1 54:1 55:3 56:2 57:1 58:2 63:1 64:3 66:2 67:1 72:1 73:3 74:2 76:1 77:3 86:3 87:2 
-0 -0 -1.157543668802501 -0.1002321139734695 0 0.2161609021700134 0.09590566599529775 0.408485540253925 0 0 0 0 0 13:2 14:1 16:1 17:2 23:2 24:2 26:2 27:2 33:3 37:2 38:2 43:4 44:1 45:2 46:1 47:2 48:2 53:2 54:1 55:1 56:2 58:2 63:3 64:2 66:2 68:1 73:2 74:2 75:2 76:2 77:2 83:2 84:4 85:1 87:3 88:1 
-0.233927855491545 -1.408692092734802 -0 -0 0.481671830503541 0.2839199813047956 1.3643741654689 0.9091608980550432 0 0 0.7428246209248065 0.1410395093188955 0 13:1 14:1 16:1 17:3 23:2 24:2 26:2 27:2 33:1 34:3 36:3 44:1 45:2 46:1 47:2 48:1 53:2 55:2 56:2 57:3 58:2 63:3 66:2 67:1 68:2 73:2 74:2 76:2 78:2 84:2 87:1 
-0 -0 -2.410994863647868 -0 0 0 0 0 0 0 0 0 0 13:1 14:2 15:1 17:3 18:2 23:2 25:2 27:2 28:1 33:2 35:2 36:1 37:2 38:2 43:2 45:2 46:2 47:1 48:2 53:2 55:3 56:2 57:2 58:2 65:2 67:2 68:2 74:1 75:2 77:2 78:2 84:1 87:1 88:1 
-0 -2.86648355351224 -0.4052419857056429 -1.060244034472097 1.038976605800029 0 1.837753940116962 1.107889366581653 1.608471817780819 0.6105626292744477 0.05703158953956146 0.6181701078392479 1.767742460253672 13:2 14:3 16:1 17:2 18:2 23:2 24:2 26:2 33:2 34:2 35:2 36:3 43:2 44:1 45:2 46:2 53:1 54:2 55:2 56:1 57:2 64:2 65:2 66:2 67:2 74:2 75:2 77:2 84:2 87:2 
-0 -0 -0 -0.8788449143810191 0 0 0 0 0 0 0 0 1.373586363777817 13:2 14:1 16:1 17:2 23:2 24:2 26:2 27:2 33:2 37:2 38:1 43:3 45:2 46:1 48:2 53:2 54:1 55:1 56:2 57:1 58:2 63:2 64:2 66:2 68:1 73:1 74:2 75:2 76:2 77:2 84:3 85:1 87:2 88:1 
-0 -0 -0.09243670001337975 -0 1.407435075977431 0 0 0.1520076364191409 1.001818433465564 0.06361442944691961 0.7790028751790976 0.4125480641105104 0.5223995098151999 13:2 14:1 16:2 17:2 23:1 24:2 26:3 27:1 33:2 34:1 36:1 38:1 43:1 44:1 45:4 48:2 54:1 55:4 56:1 57:1 58:2 64:1 65:2 67:3 68:1 74:3 75:1 77:1 78:2 84:1 85:2 
-0 -0 -1.110129068662348 -0 0 0 0 0.1909034552306968 0 0 0 0 0 13:3 14:3 16:1 17:2 23:4 24:2 27:2 28:2 33:2 34:2 35:2 36:2 37:2 38:2 43:2 44:1 45:2 46:2 47:2 48:2 53:2 54:2 55:2 56:4 57:2 63:1 64:2 66:2 67:2 73:1 74:3 76:2 77:2 84:1 86:1 87:2 
-1.29748525536472 -0.7911639651289727 -0 -1.299029798783582 1.039039065805221 0.09458556529971585 2.698912742743439 1.267568738554517 0.1724712203273587 0.1773869560216677 0.8123818301384208 0.8446967581471311 0.2199571243673097 13:1 14:2 15:1 17:3 18:2 25:2 27:2 28:2 35:2 36:1 37:2 38:2 48:2 55:3 56:3 57:2 58:2 65:2 66:2 67:2 68:2 74:1 75:2 76:1 77:2 78:2 84:1 87:1 88:1 
-0 -0 -0.04179947086458379 -0.06735186599253552 0 0.7600660652825524 0 0 0 0.09763652157674493 0 0.4785737317347532 0.8310781011392796 13:1 14:1 15:1 17:2 23:2 25:2 27:2 28:2 34:1 35:2 36:1 37:2 38:1 43:2 46:3 47:2 53:4 54:2 55:4 56:3 57:2 58:2 63:4 67:2 68:2 73:2 74:2 76:1 77:2 78:1 83:2 86:1 87:1 
-0 -0.1229048557703908 -0.9788860153072708 -1.132361945969754 0.1503095257270558 0.2268653142802704 0 0.4151371026337474 0.2263879743672113 0.397592381327897 0.9444420949908584 0.7338572733516801 0 13:2 14:1 16:2 17:1 24:2 26:2 27:2 33:2 34:2 36:2 37:2 38:1 43:3 44:1 45:2 47:2 48:2 53:4 54:1 55:2 58:2 63:2 64:2 66:2 68:2 73:2 74:2 76:2 84:3 87:2 88:1 
-0 -0.2414468569327963 -0.4740882141652987 -0.4960837057665327 0 0.7811100299543213 0.1098833626475321 0.245016148284257 0.2004751183390359 0.2876181600506364 0 0.1066131961210967 0.2847386845254503 13:3 14:1 16:1 17:1 23:2 24:3 26:4 27:2 33:1 34:4 36:4 44:3 45:2 46:2 47:2 48:1 53:4 54:1 55:4 56:4 57:2 58:2 63:4 64:2 66:2 67:1 68:2 73:1 74:2 76:2 78:1 83:1 84:3 
-0.103931117189986 -0.60903176057686 -0.2229736702930043 -0.1888285503602429 1.049573154326778 0.04873723084797164 0.3381864943996394 0.1065149952142908 0.05242005274343477 0.05903109343438966 0.05864715682209763 1.36391602105748 1.202136403927887 13:1 14:2 16:4 17:4 23:2 24:2 26:3 27:1 34:4 36:4 43:1 44:1 45:1 46:1 47:2 53:2 55:2 56:4 57:2 58:1 63:3 64:1 66:1 68:2 73:2 74:2 76:2 78:1 84:3 
-0 -0 -0 -0 0.01128383260603182 0 0 0 0 0 0 0 0 13:2 14:1 16:2 17:1 24:2 26:2 27:2 33:2 34:2 36:2 37:2 38:2 43:3 44:1 45:3 46:1 47:2 48:2 53:3 54:1 55:3 56:1 57:1 58:2 63:2 64:2 66:2 68:2 73:1 74:2 75:1 76:2 84:3 85:1 87:2 88:1 
-0 -0.6809916415930247 -0.726501032456779 -0.8133715357971552 0.744549206212045 0.1380042726654804 0.8027183028575536 0.09798671900895441 0 0 0.06158807677032196 0.1080845517691251 0.9641014184732007 12:1 13:2 15:2 16:2 17:2 22:1 23:1 24:2 25:1 26:2 27:4 32:1 33:2 34:3 35:2 36:4 37:1 43:2 44:1 45:2 48:1 53:1 54:1 55:3 56:1 58:4 63:2 64:2 65:2 67:3 68:1 74:2 75:2 77:1 78:3 84:3 85:3 
-0.3538872845236305 -0 -2.077721016369041 -0 0 0.1243823449033091 0 0 0.6556407738984764 0.446892536446528 0.5055557857309281 0 0 13:1 14:1 17:2 23:2 24:2 26:1 27:2 33:2 37:1 38:2 43:3 45:2 46:1 48:2 53:2 54:1 55:1 56:1 58:2 63:2 64:2 66:2 68:2 73:1 74:2 75:1 76:2 77:1 84:3 87:2 88:1 
-0.2265051224351219 -0.5502264239147314 -0.9887930154195362 -1.051019355738653 0.4788594534376056 0.2569893669156306 0 0.5698564250723074 0.4197402349203421 0.723005396824953 0.6637225806667619 0 0.7285530754168772 14:2 15:2 18:1 24:1 25:3 27:1 28:2 33:1 34:1 35:1 37:2 38:1 43:1 45:1 46:3 47:2 48:3 53:3 54:2 55:2 56:1 58:1 63:1 64:2 66:3 67:1 68:1 72:1 73:1 76:1 77:2 86:3 87:2 
-0 -0 -0 -0.151068271730655 1.091880104727721 0 0.1803766934705446 0 0.2925474743295505 0 0.4816440949442631 0 0 14:1 15:2 17:1 24:2 25:2 27:2 28:2 33:2 34:1 38:3 43:1 45:1 46:3 47:1 48:2 53:1 54:1 55:2 58:1 63:3 64:2 65:1 66:2 68:2 73:3 74:1 77:2 78:2 83:1 84:2 86:2 87:2 88:1 
-0 -0.4089931680089252 -0.3585714477792087 -0.4623452001313831 0.7983768664136383 0.2339810436126609 0.4105335996642115 1.075330464049896 0 0.231164674516603 0 0.6967411383712562 0.5563576441283818 13:1 14:3 16:1 17:1 23:4 24:2 27:2 28:2 33:3 34:2 36:1 37:2 38:2 43:2 44:2 45:2 46:4 47:2 53:2 54:1 55:2 56:2 57:2 63:2 64:1 66:2 67:2 74:2 76:2 77:2 83:1 84:3 86:2 87:2 
-0 -0 -2.053101691035511 -0 0 0.04642040881505764 0 0 0 0 0 0 0 13:2 14:3 16:1 17:3 18:1 23:2 24:2 26:2 28:2 33:2 34:2 36:1 38:2 43:4 44:1 45:1 48:2 53:2 54:2 55:2 56:1 57:1 58:2 63:1 64:2 66:1 67:2 68:1 73:2 74:2 76:2 77:2 87:2 
-0.5842616521710284 -0.5093349344540004 -2.791744849065665 -2.380064774796956 1.707788355072345 0.8712663606980776 1.885853736629903 1.977216974740714 0.9258120612815205 0.8596847407660464 1.569911657731545 3.642046623760446 2.248626072526198 14:3 15:2 23:2 24:1 25:1 27:2 28:2 33:1 34:1 35:1 36:1 37:2 38:2 43:1 44:1 45:2 46:2 47:1 48:2 52:1 53:1 54:4 55:1 56:1 57:1 62:1 63:1 64:2 72:2 73:3 75:1 77:1 83:1 85:2 86:2 87:1 
-0.7538121900044027 -0.4661355866115371 -1.831404885086919 -1.264315740127799 0.7751783033877284 0.6972547269207038 1.690126677865598 0.6017462748031931 0.6997384298713429 0.2431571596224572 0.5720744972665511 0 0 14:2 15:3 24:3 25:1 27:1 28:2 29:1 34:1 35:2 37:3 38:1 43:1 45:2 46:2 47:1 48:3 53:1 54:2 55:1 58:2 63:1 64:3 66:1 67:1 68:1 72:1 73:3 74:2 76:1 77:1 83:1 86:4 87:1 
-0 -0.228597791826037 -0.2585079227862828 -0.03112413971004947 0 0.1739581225768408 0 0 0 0.1243520703252019 0 0.2548328306564938 0.08078071035554241 13:2 15:1 16:2 17:1 22:2 24:1 26:1 27:1 33:1 34:3 35:2 36:4 37:1 38:1 43:4 44:1 45:2 46:1 47:1 48:1 53:2 55:3 56:2 57:1 58:4 63:1 64:2 65:2 67:2 68:1 74:4 75:1 78:1 84:3 85:3 
-1.112990980307287 -0 -0.3951886463417368 -1.913354072793942 1.037651908595328 0.2555043679074694 0.6312783499109549 1.70042877537686 0.654067238424898 0.8767347557097208 0.9535214646568845 0.4649152513891353 0 13:1 14:1 16:1 17:2 22:1 23:2 24:1 26:3 27:1 33:1 34:1 36:2 37:1 38:1 43:3 44:1 45:1 48:1 55:3 56:1 57:1 58:3 64:1 65:1 67:3 68:1 74:2 75:1 77:1 78:1 84:1 85:3 
-0.711340785500633 -0.5839310350844278 -0.9413298605041432 -1.283103784557245 0.8433735670991187 1.774967896940728 1.307863391457505 1.144235181325859 0.7537838631700102 1.410872268149119 1.13704153499606 0.9013646193232973 0.8932316530557943 11:1 16:3 17:2 22:4 27:2 30:1 32:4 35:3 36:2 38:1 39:1 40:1 42:4 45:1 46:1 47:1 48:3 49:1 50:2 52:4 54:1 55:1 56:4 57:1 58:1 59:2 62:3 64:1 65:1 66:2 68:1 69:3 72:2 73:2 74:3 75:3 77:1 79:1 81:1 82:3 83:1 85:1 87:2 88:3 
-1.585272746377469 -2.275237523338867 -2.629010274101516 -1.846712487363323 1.674012519310951 1.784640197528837 2.917052720875405 1.535159980321617 2.038752388199703 1.211599846281828 1.582439143383174 1.899635196482879 1.385548256102459 15:2 16:2 24:1 25:2 26:1 28:3 34:1 36:1 38:1 39:2 44:2 46:2 48:1 49:1 54:1 55:1 56:3 57:2 58:1 59:2 64:1 65:2 67:2 68:1 73:1 74:2 75:1 77:1 78:3 82:1 87:2 88:2 
-0 -0.6427538552295226 -0.1501429768614964 -0 0.2107675143693774 0.4776417718284615 0.5826268245455792 0.02774428724137255 0 0 0 0 0.3624043104630696 13:1 14:3 16:2 17:2 18:2 23:2 24:2 26:2 28:2 33:2 34:2 35:2 36:3 38:1 43:2 45:2 46:2 53:1 54:2 55:2 56:1 57:2 64:2 65:2 66:2 67:2 74:2 75:2 76:2 77:3 78:1 83:1 84:2 87:2 88:1 
-0.5250306499228756 -0.4758653346141741 -0.274762933629096 -0.6000043538845498 0.2551945725187299 0.1188829490083357 0 0.2921095136154112 0 0.1275455250451559 0 0.518111865351141 1.076050977054735 14:1 16:2 17:2 23:2 24:2 26:2 27:2 33:1 34:3 36:3 43:1 44:1 45:2 46:4 47:2 53:2 55:2 56:4 57:2 58:1 63:4 66:1 68:2 73:3 74:2 76:2 77:1 78:1 83:2 84:4 87:1 
-0 -0 -0 -0 0 0.288720913670236 0 0 0 0 0 0 0 14:3 15:2 18:2 24:1 25:2 27:2 28:2 33:2 34:2 35:2 37:1 38:2 43:2 45:3 46:2 47:2 48:3 53:3 54:2 55:4 56:1 57:1 58:2 63:1 64:4 66:3 67:2 68:1 72:1 73:3 74:1 76:1 77:2 86:2 87:2 
-0 -0 -0 -0 -0 0 0 0 0 0 0 0.8001295089086061 0 14:2 15:4 16:3 17:1 23:1 24:1 25:1 26:1 27:2 33:1 34:4 35:1 36:1 37:2 45:2 46:1 47:2 55:2 57:2 64:2 65:1 66:1 68:2 74:1 75:1 77:1 78:1 84:1 85:2 87:1 
-0 -0 -0 -0.6619454637081624 -0 0 0 0.09269501505832799 0 0.04124712181825026 0 0 0 14:2 15:3 16:2 23:2 25:2 27:2 33:1 34:2 36:2 37:2 44:1 45:2 46:2 47:2 54:1 55:2 56:1 57:1 63:1 64:1 67:2 75:2 76:1 77:2 84:2 85:1 86:3 87:1 
-0 -1.068805663114046 -0.2527878266575433 -0.6755577744017147 -0.7445776791204499 0 0.8458897052441539 0 0 0.1723056190567045 0.01940751547974055 0 0 14:1 15:3 16:3 17:1 24:4 27:2 34:2 35:2 36:3 37:2 38:2 45:2 46:3 47:1 48:1 55:1 57:2 63:1 64:1 66:2 67:2 73:2 74:1 75:2 76:1 77:2 84:3 85:1 86:2 87:1 
-0 -2.205761278783858 -0.6473733306461968 -0 -0.5760543629923252 0.02366028331226185 0.1811620783186979 0.5057548273929825 0 0 0 0.9040645107400344 1.415388299547987 13:1 14:3 15:2 16:2 17:3 23:2 24:2 25:4 26:2 27:2 33:1 34:2 35:2 36:3 37:2 44:2 45:3 46:2 47:2 55:2 56:3 57:3 63:2 65:2 66:2 67:2 74:1 77:3 84:1 86:1 
-0.2830314396082265 -0 -0 -0 -0 0 0 0 0 0 0 0 0.6662621342221704 13:1 14:1 15:2 16:3 17:1 23:3 24:1 25:2 26:1 33:1 34:1 36:2 37:2 45:1 46:2 47:3 55:3 56:3 57:1 58:2 64:2 65:3 66:3 67:1 68:1 74:2 75:1 76:1 77:1 78:1 85:2 86:1 87:1 
-0.5130343552148462 -0.7987328728057373 -0 -1.070845244076807 -0 0 1.37209757500707 1.38626775211242 1.146463556411226 0.2271444667517442 0.3214766431783969 0.4133205384642968 0 13:1 14:3 15:2 16:1 17:1 24:1 25:2 26:1 27:1 34:2 35:1 36:2 37:2 44:1 45:1 47:2 55:1 56:1 57:1 63:1 64:1 65:2 66:2 74:1 76:1 77:2 84:1 86:2 
-0 -0 -0 -0 -0 0 0 0 0 0.009764635389832519 0 0 0 14:2 15:2 16:2 23:1 24:1 25:1 27:2 33:3 34:3 36:1 37:2 44:1 45:3 46:1 47:2 54:1 55:4 56:1 57:2 64:1 65:1 66:3 67:2 68:2 73:1 74:2 75:1 76:1 77:3 84:1 85:2 86:2 87:1 
-0.1666743302443476 -0 -0 -1.333655036412791 -0.2636510023343684 0.2051507028832855 0 0.03878072454609433 0.4923730003891731 0 0.1094507997308245 0.7368457969762615 0.4761574266607305 14:1 15:2 16:2 24:4 26:1 27:1 28:1 34:1 35:1 36:2 45:3 46:3 47:1 48:1 55:2 56:1 57:2 63:3 64:2 65:1 66:2 73:2 74:1 75:2 76:1 77:1 83:1 84:1 85:3 86:2 
-0.1393552000641736 -0.1667464555405342 -0 -0 -0.1154267057876062 0 0.9234404585462002 0.06129545790111388 1.186105381926963 0 0 0 0 14:1 15:3 16:2 17:1 24:1 26:1 27:1 28:1 34:2 35:1 36:2 38:1 45:2 46:2 47:2 48:1 55:2 57:2 63:1 64:1 65:2 66:1 67:2 73:2 75:1 76:1 77:4 83:1 84:3 85:1 86:3 87:1 
-0 -0 -1.459540436501146 -1.197630964539824 -0.8451431549732882 0 0.09639121768998088 0.6512431479558207 0 0 0.7016745731280538 0 0.5282268728564473 13:1 14:2 15:2 16:3 17:1 23:2 24:1 25:3 26:1 27:2 33:3 34:2 36:2 37:2 45:3 47:2 48:1 55:1 56:1 57:1 58:3 64:1 67:1 68:3 74:1 75:1 76:1 77:2 78:2 85:1 87:1 
-0 -0 -0 -0 -0.01514726626380113 0 0 0.2988602853421882 0 0 0 0 0 14:2 15:2 16:2 17:1 23:3 24:1 27:2 33:1 34:1 37:3 45:2 46:1 47:2 55:3 56:2 57:3 64:2 65:1 66:2 67:2 68:1 74:2 75:1 76:1 77:2 84:1 85:3 86:2 87:1 
-0 -1.249681855882556 -0 -1.020325326399361 -0 0 0.006755498747977177 0 1.13984391879599 0.07008510962050607 0.000501256114479156 0 0 13:1 14:2 15:2 16:2 23:2 24:1 25:2 27:1 33:3 34:2 35:1 36:1 37:1 44:1 45:2 46:2 47:1 55:1 56:1 57:1 58:1 64:2 65:3 66:3 68:2 74:3 75:1 77:3 84:1 85:1 86:1 
-0 -0 -0 -0 -0 0 0 0 0 0 0 0.1636621969190752 0 14:3 15:2 16:2 17:1 23:1 26:1 27:2 34:2 36:2 37:1 45:2 46:2 47:2 55:2 56:1 57:3 64:1 66:1 67:1 68:2 74:2 75:1 77:1 78:1 84:1 85:3 86:3 87:1 
-0 -0.8576023557325142 -0 -0 -0.5381716276939488 0 0 0 1.094115228870491 0 0.2451891390575541 0.3054330291875172 0.3108213138128451 13:1 14:2 15:2 16:2 23:1 24:1 25:2 27:1 33:1 34:2 35:1 36:1 37:2 45:2 46:1 47:1 55:1 56:2 57:2 58:1 64:1 66:3 68:1 74:3 77:1 78:2 84:1 85:2 86:2 87:1 88:1 
-0 -0 -0 -0 -0 0 0 0.4511856442481669 0 0 0 0 0 13:1 14:3 15:2 16:2 17:1 24:1 25:3 26:1 27:1 34:2 35:1 36:2 37:2 45:3 46:1 47:2 55:1 56:2 57:2 64:1 65:2 66:2 67:1 76:1 77:3 84:1 86:1 
-0 -0 -0.3060408955975058 -0.08931979241115366 -0 0 0 0 0 0 0.5089522013257832 0 0 14:1 15:2 16:3 17:1 24:1 25:1 26:1 27:2 34:1 35:1 36:1 37:1 38:2 45:2 46:1 47:2 55:1 57:2 63:2 64:1 67:2 73:2 74:1 77:3 84:2 85:2 86:2 
-0 -0 -0 -0 -0.3181381398185509 0 0 0 0 0 0 0 0 14:1 15:2 16:2 17:1 24:3 25:1 26:2 27:1 28:1 34:2 35:1 36:2 37:1 38:2 45:4 46:2 47:3 48:1 55:3 56:2 57:2 63:2 64:2 67:4 73:3 74:1 75:1 77:3 84:3 85:2 86:2 
-0 -1.17790139816613 -0 -0.4106749423577403 -0.04576075306746299 0 0.6680114035613918 0.2902489589414021 0.1948453048006384 0 0.1153872282684518 0 0 14:2 15:2 16:2 17:1 23:1 25:1 26:1 27:2 33:1 34:4 35:1 36:2 37:2 45:3 46:1 47:2 55:1 56:1 57:2 58:2 65:2 66:1 67:2 68:2 74:2 75:1 76:2 77:1 78:2 85:2 86:2 87:1 
-0.1746546297168103 -1.276341923662154 -0.9446022388571346 -1.863318685476231 -0.3611884927467826 0.8018477963060578 1.248158724397646 1.147189126552996 0 0.4061906107648438 0.387385777332585 1.113780881637142 0.6964436392112661 14:2 15:4 16:3 17:1 22:1 23:2 24:2 25:4 26:3 27:2 28:2 33:1 34:4 35:2 36:3 37:3 38:2 45:2 46:2 47:3 48:2 57:2 58:2 59:1 65:2 66:2 67:2 69:2 75:2 76:1 77:1 78:2 85:1 87:1 
-0 -0 -0 -0 -0 0 1.263914246251221 1.650233500496641 0 0 0 0 0 14:2 17:2 24:2 25:3 26:2 27:2 28:1 34:2 35:2 36:4 37:2 45:2 46:1 47:2 55:2 56:1 57:2 63:1 64:2 65:1 66:2 67:2 73:1 74:1 75:2 77:2 84:1 85:1 86:2 
-0.3381636447575069 -0.8642849727655998 -0.9978815670997742 -1.645696189882751 -1.613297144394966 0.7739806374549311 1.036079634487516 0.4037211722646401 1.521459885619328 0.6298166241867894 1.447727826116868 0.2785334368251299 1.784647057552935 4:1 5:2 12:2 13:1 14:2 16:2 22:2 23:1 24:1 26:3 27:1 32:1 33:3 43:2 44:1 45:1 48:2 54:3 55:3 58:2 59:1 63:2 64:2 65:1 68:2 69:2 73:2 78:4 85:2 86:2 87:3 88:1 
-0 -0.4142935026871968 -0 -0.058085710625762 -0 0 0.00545158765512836 0.6291510757458649 0 0 0 2.086071715585626 0.8252228649983796 13:1 14:2 15:2 16:3 17:1 23:3 24:1 25:2 26:1 27:2 33:1 34:1 36:2 37:2 47:2 55:2 56:2 64:1 65:3 66:2 68:1 74:2 75:1 76:1 77:1 78:1 85:2 86:1 87:1 
-0 -0 -0 -1.043421488146177 -0 0.008318334702671643 0 0.3422176914002292 0.04416266574692515 0.2835759709614162 0 0 0.5295378040968454 13:1 14:2 15:2 16:2 23:3 24:1 25:1 26:1 27:2 33:3 34:3 37:4 44:1 45:2 46:1 47:2 55:4 56:2 57:1 64:2 65:1 66:3 67:2 68:2 74:1 75:4 76:2 77:1 84:1 85:3 86:2 87:1 
-0 -0 -0.005271846863219732 -0 -0.5620865351281067 0.1692854839147395 0 0 0 0.01698699736792237 0 0 0 14:3 15:2 16:2 17:1 23:3 24:1 25:4 26:1 27:3 33:2 34:4 36:3 37:3 45:3 46:1 47:3 48:1 55:1 56:2 58:3 64:1 65:2 66:2 67:1 68:2 74:1 75:1 76:1 77:1 78:2 87:1 
-0 -0 -0 -0 -0 0.1863458229007561 0 0 0 0.4900479684775215 0 0 0 14:2 15:2 16:2 17:1 23:2 24:1 25:2 27:1 33:1 34:4 36:4 37:1 45:3 46:1 47:3 55:3 56:3 57:1 58:1 66:4 68:2 74:2 75:1 76:1 77:1 78:1 85:2 86:1 
-0 -0 -0 -0 -0 0 0 0 0 0 0 0.7527042495289662 1.253546024191513 14:1 15:3 16:2 17:1 24:1 25:1 26:1 27:2 28:1 34:2 35:1 36:2 38:1 45:3 46:3 47:3 55:1 56:2 57:2 63:2 64:1 66:1 67:1 73:3 74:1 75:1 76:1 77:3 83:1 84:2 85:3 86:2 87:1 
-0 -0.1032730501783078 -0 -0 -0.04256195079891135 0 0 0 0 0 0 0 0.3967658562588729 14:3 15:2 16:2 17:1 23:2 24:1 25:1 26:1 27:2 33:1 34:4 35:1 36:2 37:2 45:2 46:1 47:1 55:1 56:3 57:1 65:1 66:2 68:2 74:2 75:1 76:2 77:1 78:2 85:2 86:2 87:1 
-0 -0 -0 -0 -0 0 0 0.3188307438017429 0 0 0.2176545264592428 0 0.08003275716023003 13:1 14:3 15:2 16:2 17:1 23:2 25:2 26:1 27:2 33:3 34:3 36:1 37:2 45:3 47:2 55:1 56:1 58:1 64:1 65:2 66:3 67:1 74:2 75:1 76:1 77:2 78:1 85:1 87:1 
-0 -0 -0 -0.2601777666963803 -0 0 0 0 0 0 0 0.171503435356913 0.5165898152547179 13:1 14:3 15:2 16:3 17:1 23:2 24:1 25:4 26:1 27:3 33:1 34:1 36:1 37:3 45:3 55:1 56:1 57:1 58:1 64:1 65:2 66:2 67:1 68:2 74:1 75:1 76:1 77:1 78:1 85:2 86:1 87:1 
-0 -0.1018648002534361 -0.9373176069040172 -0.6234120163554461 -1.099880144831962 0.7009885037178401 0.8892005858458499 0 0 0.3929129139374191 0.7381950511916429 0.2563139948081092 0.8432099212828035 14:1 15:3 16:3 17:4 18:1 24:1 25:2 26:2 28:2 35:1 38:3 45:3 46:1 47:2 48:2 54:3 55:1 56:2 57:1 63:3 64:3 65:2 66:4 67:2 73:2 74:1 75:2 77:4 84:1 85:1 86:2 87:1 
-1.494240081516325 -0.01349684457008313 -0.4892463196986666 -0 -1.315741447828082 0 1.07472210568668 1.698081511439291 0 0 0 2.784566191972026 0 14:2 15:1 16:1 17:2 24:2 25:2 26:2 27:1 28:2 34:1 35:1 36:2 37:1 38:2 45:1 46:1 47:2 55:2 56:2 57:1 63:1 64:2 65:1 66:3 67:2 73:1 74:1 75:2 77:1 84:1 
-0 -0.02229494458257681 -0 -0 -0 0 0 0 0 0.01918562985464991 1.694166008016702 0 1.04610405513439 14:1 15:3 16:2 17:2 24:1 25:2 26:1 27:2 33:1 34:4 35:1 36:1 37:2 38:2 45:3 46:1 47:1 55:2 57:2 64:2 65:1 66:2 68:2 75:1 76:2 77:1 78:1 84:1 85:2 86:2 87:2 
-0 -0 -0 -0 -0.8491576090648014 0 0.1438682169949277 0 0.131097039220231 0 0 0 0.5192806350187859 14:1 15:2 16:2 17:2 24:2 25:1 26:1 28:2 34:1 35:2 36:1 37:2 38:2 45:3 46:2 47:1 48:1 55:3 56:1 57:2 63:1 64:3 65:2 67:2 68:2 73:1 74:2 75:2 76:1 77:2 78:1 84:2 85:3 86:3 87:1 
-0 -0 -0 -0 -0 0 0 0.3211785975571996 0 0 0 0 0 14:1 15:2 16:3 17:1 23:1 24:1 25:1 26:1 27:1 34:2 35:2 36:2 37:2 38:2 45:4 46:1 47:2 55:2 57:2 64:2 65:1 66:2 68:2 75:1 76:2 77:1 78:1 84:1 85:2 86:2 87:2 
-0 -0 -0.23651424570512 -0.3705948370925747 -0.2444482267634347 0.4340567310115441 0.5564316060077134 0.03766836638839451 0 0.1771925444650737 0 0.1446328348553032 0.659068649546107 13:1 14:2 15:2 16:3 17:1 23:3 24:1 25:2 26:1 27:3 33:3 34:3 37:4 44:1 45:3 46:2 47:2 54:1 55:4 56:2 57:3 64:1 65:1 66:3 67:2 68:1 73:1 74:2 75:4 76:1 77:3 84:2 85:4 
-0.2939980975701999 -0 -0.833792808935003 -0 -0.1720983956983677 0.3838137950280396 0.1703970469261859 0.2597059307530605 0 0.3653608566251326 0 0.8638076932783786 0 14:1 15:1 17:2 24:2 25:2 26:3 28:2 35:1 36:1 37:2 38:3 45:3 46:2 47:3 48:1 54:1 55:2 56:2 57:2 63:3 64:3 65:2 66:3 73:1 74:1 75:1 77:2 85:1 86:3 
-0 -0 -0 -0.9070772013549186 -0 0 0 0 0 0 0 0 0 14:1 15:3 16:2 17:1 25:1 27:2 28:1 34:2 36:2 38:2 45:2 46:2 47:3 48:1 55:2 56:1 57:2 63:1 64:1 66:2 67:2 73:3 74:1 75:1 76:1 77:3 84:3 85:3 86:2 87:1 
-0.5872821945053825 -1.414418894175621 -0.4949091494231607 -1.573343102517807 -1.295147246105368 0.6572906638401945 1.104255333795288 0.1094167309663868 0.5258105475075879 0.5090848949548314 0.6758466504449253 1.850974197459039 1.467815102604734 14:2 15:2 16:1 22:1 23:2 24:1 26:1 27:1 32:2 33:2 34:1 36:2 37:2 43:2 46:2 53:2 54:2 55:1 58:1 63:1 64:4 65:4 68:2 72:1 73:3 78:2 
-1.031330487826547 -1.705685228464873 -0.9449371000225554 -2.438942671813926 -1.510600391727871 0.1419453338070631 1.573737697230564 0.8870342465965104 1.35452662205345 0.4574971496692511 2.595002698028204 0 1.077194192359494 14:2 15:1 16:1 17:3 25:2 26:2 27:1 28:1 35:1 36:2 38:2 45:1 46:1 55:2 56:1 63:1 65:2 66:3 67:2 68:2 73:1 74:1 75:2 76:1 77:3 84:1 85:1 86:2 87:1 
-0 -0 -0 -0 -0 0 0 0 0 0 0 0 0.7056277783796184 14:1 15:1 16:2 17:3 24:1 25:2 26:2 27:1 28:1 35:1 36:2 38:1 45:2 46:1 47:1 55:3 56:2 63:1 64:3 65:1 66:2 67:2 68:1 73:1 74:1 75:2 76:1 77:3 84:2 85:2 86:2 87:1 
-0.8969386913858912 -1.840745406023172 -1.551170552170385 -1.061624710892192 -1.652637789672162 0.7416774740587316 1.447122753079281 1.475767286583354 1.543775040887113 0.8650964184758361 1.214283736620841 1.52788030868382 1.769597980565921 14:2 15:2 16:1 23:2 24:1 26:1 33:3 34:2 35:2 36:2 37:2 43:1 44:1 45:3 46:2 47:2 55:3 56:1 57:2 66:1 68:1 74:4 75:3 76:3 77:1 78:2 84:2 
-0.2059298925252555 -0.3555364312606768 -0.8382408110425433 -0.3301548485323044 -1.303093440045586 0.9694078401757291 1.173806894035631 1.971192229559941 1.138289107646984 1.28744494309714 1.472630011309534 1.453530746673425 1.209338428987525 4:1 5:2 6:1 12:1 13:2 14:2 16:2 22:2 23:1 24:1 26:2 27:1 32:1 33:3 34:1 36:1 37:1 44:3 45:2 46:1 48:1 49:1 54:1 55:3 56:2 59:2 64:2 69:1 73:1 78:2 79:1 86:2 87:2 88:1 
-1.377666054393211 -0 -0 -0 -0.3497933855021648 0.2351333427912203 0 0 0 0.5783454887466771 0 0 0 14:1 15:2 16:3 17:1 26:1 27:1 28:1 34:2 36:1 38:2 45:1 46:2 47:3 55:2 56:1 57:2 63:2 64:1 66:2 67:3 73:1 74:2 75:1 77:2 84:3 85:2 86:1 87:1 
-0.861310963070727 -0.6983571982354528 -2.593674299283677 -1.622217095360898 -1.339805235109396 1.016913095979421 1.209992329693432 2.415319988344943 1.411580010487851 1.500705487954042 1.932412083195444 1.05880254521923 1.267447231659626 13:1 14:2 22:1 23:2 26:1 27:1 32:2 33:2 34:1 36:3 37:2 43:2 53:2 54:1 58:1 63:2 64:4 65:1 68:1 72:1 73:1 78:3 
-0 -0 -0 -0 -0 0 0 0 0 0 0 0.6683300641848172 0.6943631497894632 14:2 15:2 16:2 17:3 23:2 24:2 25:3 26:1 27:1 34:2 35:1 36:2 37:2 45:2 46:1 47:2 55:2 56:1 57:2 63:1 64:1 65:2 66:2 67:1 73:1 75:2 76:2 77:1 84:1 85:2 86:2 
-0 -0.5210950420441562 -0 -1.544963025058577 -0 0 0 0 0.2642615047126293 0 0 0 0.5101283467462276 14:1 15:2 16:3 17:1 24:3 25:2 27:1 28:1 34:1 35:1 36:1 38:1 44:1 45:2 46:1 47:3 48:1 53:1 55:2 56:1 57:1 63:3 64:3 65:2 66:2 73:2 74:1 75:1 76:1 77:2 84:1 85:2 86:1 
-0 -0 -1.080809939830617 -4 -1.360038832105483 0.1343410990422517 0.3759204285849387 0 0.3082575164924651 0 0 0.4666952612260303 1.600917441226976 13:1 14:3 15:3 16:1 23:2 25:2 26:1 27:2 33:3 34:1 36:2 37:1 38:1 43:1 44:2 45:1 46:2 47:1 54:1 55:2 56:1 57:2 58:2 63:2 64:2 65:3 66:2 67:2 68:1 73:2 74:2 77:3 84:3 85:4 86:2 
-0.01044503754264065 -1.018454676225011 -0 -0 -0 0 0.3754579445937062 0.5104620284400762 0.2499968253363039 0 0 0 0 14:1 15:1 16:1 17:1 24:1 25:3 26:3 27:1 28:2 34:1 35:1 36:1 37:1 38:2 45:1 46:1 47:1 55:2 56:1 57:2 63:1 64:2 65:1 66:2 67:2 73:1 74:1 75:2 77:2 84:1 85:2 86:2 87:1 
-0 -0.2612468670693892 -1.237329138097406 -1.447528085218037 -0 0 1.10863842067428 0.8145895266872012 0 0 0.973021558794728 2.245874459460579 0 13:1 14:2 15:2 16:2 17:1 23:1 24:1 25:2 26:1 27:2 34:1 35:1 36:2 37:2 44:1 45:2 46:1 47:1 54:1 55:1 56:1 57:2 63:1 64:2 65:2 66:2 74:1 76:1 77:3 86:1 
-0.7444908496611327 -0 -0 -0 -0 0 0 0 0 0 0 0 0 14:1 15:1 16:2 17:3 25:1 26:2 27:1 28:1 36:2 38:2 45:2 46:1 47:2 48:1 55:2 56:1 57:1 63:1 64:3 65:1 66:3 67:2 73:1 74:1 75:2 76:1 77:2 84:1 85:2 86:2 87:1 
-0 -0 -0 -0.3344610174405668 -0 0 0 0 0 0 0 0 0 14:1 15:4 16:3 17:1 24:1 26:1 27:1 28:1 34:2 36:2 38:2 45:1 46:1 47:3 48:1 55:2 56:1 57:2 63:2 64:1 66:2 67:4 73:3 74:1 75:1 76:1 77:3 84:3 85:2 86:2 87:1 
-1.356573782998614 -0.3446952157515515 -0 -1.168593059398503 -0 0 1.321657336117967 0 0 0 0 0 0.6943124516918657 14:2 15:2 16:2 17:1 23:2 24:1 25:3 26:1 27:3 34:1 36:2 37:2 46:1 47:2 55:2 56:2 64:1 65:2 66:2 67:1 68:2 74:3 75:2 76:1 77:1 78:1 84:1 85:2 86:1 87:1 
-0 -0 -0 -0 -0.3287168995120378 0.06613616629964013 0 0 0 0 0 0 0 14:1 15:2 16:2 17:3 24:2 25:1 26:2 28:2 34:1 35:1 36:2 37:2 38:1 45:3 46:1 47:3 48:1 55:3 56:3 57:3 64:3 66:1 67:2 68:2 73:1 74:2 75:1 76:1 77:3 78:1 84:1 85:2 86:3 87:1 
-0.144398963358677 -1.147148011492845 -0.3142939279779032 -1.121334680816697 -0.4637841526144355 0.04667751908691029 0.5982072988015609 0 0.9006567687831701 0.003688671440318308 2.614274276687947 4 1.025804923529837 14:2 15:1 16:3 17:1 24:2 25:2 26:1 27:1 28:1 34:1 38:2 44:1 45:1 46:1 47:2 53:1 55:2 57:1 63:2 64:3 65:1 66:1 67:1 73:2 74:1 75:2 84:1 86:1 
-0 -0 -0.3326585776699713 -0.1617353842189193 -0.1141561331588493 0.2659485451468355 0.05090617305997823 0.4416912574389018 0 0.08341165376628694 0 0.03449222199236771 0 14:2 15:3 16:2 23:1 26:1 27:2 34:4 35:1 36:4 45:2 46:2 47:3 56:3 57:1 64:2 65:1 67:1 68:2 74:1 75:1 77:2 78:1 84:1 85:2 86:3 87:1 
-0 -0 -0.2006928647410032 -0.7468568699991356 -0.2024255198175067 0.3228463645589995 0 0 0 0.2776184717825607 0 0 0 14:1 15:2 16:2 17:1 24:1 25:1 27:2 28:1 34:1 35:1 36:4 37:2 38:2 44:1 45:2 46:2 47:2 54:1 55:3 56:2 57:2 63:3 64:3 67:4 73:3 74:1 75:2 77:2 84:1 85:4 86:2 
-0 -0.3346883921172922 -0 -0 -0 0 0.3498483393163461 0 0.6316281110920718 0 0.3641700323302235 0 1.674538398093383 14:3 15:2 16:1 17:2 24:4 25:3 26:2 28:2 35:2 36:2 38:1 45:3 46:1 47:2 54:2 55:2 56:1 63:2 64:2 65:2 66:2 67:2 73:1 74:1 75:3 76:1 77:2 84:1 85:1 86:1 
-0.2827190378876132 -1.532020961104422 -1.766587949757156 -1.174593036334771 -0.2095417283640456 0.4882674550799569 1.595831191434095 0.5932732917761854 0 0 0.1264668176867405 0 0.116380985417309 14:1 15:1 16:2 17:2 24:3 25:2 26:2 27:2 28:1 35:2 36:4 37:2 38:2 45:3 46:1 47:3 53:1 54:1 55:1 56:1 57:3 63:3 64:2 66:1 67:4 73:2 74:2 75:1 76:2 77:2 84:1 85:2 86:1 
-0 -0 -0.1312881032011513 -0 -0.1469393948841176 -0 0 0.1115067050555021 0 0.08461374025905283 0 0 0.2011154970576656 12:2 13:1 17:3 18:3 19:1 23:1 24:1 27:2 28:2 34:2 36:3 37:1 38:2 39:2 43:3 44:1 45:1 46:2 47:3 48:2 49:2 53:4 54:1 55:3 56:1 57:4 58:2 59:2 63:2 64:4 66:3 67:1 68:2 69:2 73:1 74:1 75:3 76:2 78:2 79:1 83:1 87:1 88:2 
-0 -0.1088802259006282 -0 -0 -0 -0.05751392978970701 0 0 0.6283426787920284 0.4745952602609684 0.003658559027511931 0 0.2465623821997938 12:1 13:2 17:1 18:2 19:1 22:4 23:1 24:1 27:2 29:1 32:2 34:2 39:2 43:2 44:1 45:2 47:1 49:3 52:1 53:1 54:3 55:1 56:2 57:2 58:1 59:2 62:2 63:2 64:2 65:2 67:2 68:3 72:1 73:2 74:2 75:2 76:2 77:1 78:2 79:3 83:1 84:2 
-0.5067176715860866 -0.7191690396020359 -1.138269679348724 -0.7409929953359865 -0.9044538766651899 -0.524716012346601 0.8850089177150888 0.5326543710701543 0.5945087053521405 0.4569459415096282 0.5165848794063165 0.2994136347281122 0.5827010491372128 12:2 18:2 22:1 23:2 27:2 28:2 34:2 36:2 37:1 38:2 43:1 44:2 46:2 47:1 48:2 53:4 55:1 56:1 57:2 58:2 63:4 64:3 65:1 66:1 67:4 68:2 69:2 73:3 74:2 75:1 76:3 77:2 78:2 79:2 83:3 85:2 86:1 87:2 88:4 89:1 
-0 -0 -0.0933693599754313 -0 -0.3318817431619926 -0 0 0 0 0 0 0 0.1910877772060585 3:1 13:3 14:2 22:1 23:2 24:2 28:2 29:3 32:1 33:1 34:2 35:2 37:2 38:1 39:1 42:3 43:2 44:1 45:2 46:1 47:1 48:1 49:3 52:2 53:3 54:2 55:4 56:3 57:1 58:1 59:2 62:2 63:2 64:3 66:1 67:2 68:2 69:2 71:1 72:2 73:1 74:1 75:1 76:3 77:4 78:1 85:2 87:2 88:3 97:1 98:1 
-0 -0 -0.1081099485754326 -0.03670773061050066 -0.1369557537410445 -0 0.08860175451295617 0 0 0.03797844251906061 0 0 0 12:1 13:3 14:1 22:1 24:2 28:2 29:3 32:2 34:1 37:3 38:1 39:4 42:3 43:2 44:1 45:1 47:1 49:1 52:2 53:3 54:1 55:3 56:1 58:1 59:2 61:1 62:2 63:4 64:2 65:2 66:1 67:3 68:2 69:2 71:1 72:3 73:2 74:4 76:3 77:3 78:1 82:1 83:1 84:1 85:3 87:2 88:2 
-0.7630326167053928 -0.8909829340758856 -1.051623347741389 -1.577801764680755 -1.158734813965775 -1.023609434826185 1.296436133692874 1.062163955154156 0.6632800575922808 1.066434642677428 0.9197008065151826 1.108843179633846 1.06407872464017 5:2 6:1 10:1 14:1 15:2 16:2 20:2 21:1 24:2 25:2 26:1 27:1 29:2 30:1 32:1 34:2 35:2 36:1 37:2 39:2 42:2 44:2 46:3 47:2 48:3 50:1 52:1 54:2 56:4 59:2 60:2 63:1 64:2 66:2 67:2 68:1 69:2 72:2 75:2 76:1 77:1 78:3 80:2 81:2 91:1 
-0 -0 -0 -0 -0 -0 0 0 0 0.1984769798318711 0 0 0 12:2 13:2 17:2 18:1 19:2 22:2 23:1 24:1 27:2 29:1 32:3 34:3 36:1 37:2 38:1 39:1 42:1 43:1 45:3 46:1 47:1 48:2 49:4 52:1 54:3 55:1 56:1 57:2 58:2 59:3 62:2 64:2 65:2 67:3 68:1 69:1 73:1 74:2 75:1 76:1 78:2 79:3 83:1 84:1 
-0 -0 -0 -0.01324855385398932 -0.0008232794805409315 -0 0.009528116063427145 0.1409249699411517 0 0.1017476497526277 0 0 0 3:2 12:1 13:2 14:1 18:1 19:1 22:2 24:4 27:2 28:1 29:4 32:4 33:1 34:2 36:1 37:3 39:1 42:3 43:3 44:1 45:2 46:1 47:1 48:1 49:1 52:2 53:4 54:2 55:3 56:1 57:4 58:2 59:2 61:2 62:2 63:1 64:2 66:2 67:4 68:2 71:2 72:2 73:1 74:1 75:1 76:1 77:3 78:1 85:1 87:2 88:3 
-0 -0 -0 -0 -0 -0 0 0 0 0.02386445182589938 0 0 0 12:2 13:2 17:1 19:1 22:2 24:1 27:2 29:2 32:2 34:3 36:1 37:1 38:2 39:2 42:1 43:1 44:1 45:2 46:3 47:2 48:2 49:2 53:2 54:2 55:3 56:1 57:4 58:2 59:2 63:2 64:3 66:2 67:2 68:2 69:2 73:3 74:1 75:3 76:3 77:2 78:2 79:2 83:1 87:1 88:2 
-0.562248676526507 -0.6480231300394642 -0.7990956918621863 -0.9643120124966339 -0.7642311605132426 -0.7141101236432188 0.8330763674519956 1.134229619490626 0.4587069845333014 0.7661539104975524 0.9784675419180362 0.882994415736657 0.6433837755945225 4:1 5:1 14:1 15:1 16:1 19:2 26:1 28:1 29:1 34:2 35:2 36:2 38:3 39:1 43:1 44:2 45:4 47:4 49:4 51:1 53:2 54:1 55:2 56:1 57:1 58:3 59:2 61:2 62:2 63:2 65:2 66:2 67:1 68:1 69:2 72:2 82:3 
-0 -0.2145544133915772 -0.4351510325118851 -0.09806108816743156 -0.5108129851157073 -0.1464206539101341 0 0.1131096417002926 0 0 0.1175183340528479 0.2785618466358644 0.1517994612853634 12:2 13:3 17:3 18:2 19:1 23:1 24:1 26:1 27:2 28:2 29:2 34:2 36:3 37:1 38:2 39:2 43:3 44:1 45:1 46:2 47:3 48:2 49:2 53:4 54:2 55:3 57:4 58:2 59:2 63:4 64:2 66:2 68:2 69:2 73:4 74:1 76:1 78:2 79:2 88:2 
-0.2406062438209587 -0.06065179813456061 -0 -0.3118002106888671 -0.02708281351193176 -0.1794883491984954 0.5977245459224614 0.4039915224432497 0 0 0.04740344327368601 0.1132749739800672 0 12:1 13:1 17:2 18:2 22:2 23:3 26:1 27:1 28:2 32:1 34:3 36:2 37:1 38:2 39:2 42:1 44:1 45:1 46:1 47:1 48:1 49:2 52:2 54:1 55:2 56:1 57:4 58:1 59:1 62:3 63:1 64:3 66:1 67:3 68:2 72:2 73:2 75:3 76:2 83:1 86:1 88:1 
-0.5738589724925279 -0.6164429620001057 -1.023052625856677 -0.7990863410648981 -1.114942637779405 -0.7672854616042731 0.6803145285429444 0.5877871590027482 0.5601347378856599 1.388622056339872 0.7474186217155165 0.9751642816131941 0.6378009679433926 16:1 17:1 18:1 21:1 22:1 23:1 26:1 28:3 31:2 32:1 33:2 34:1 36:3 37:1 38:1 41:1 42:1 43:1 44:3 46:1 48:1 49:2 52:1 53:2 54:1 55:2 56:2 57:4 58:1 59:1 62:2 63:2 64:4 67:1 68:1 69:2 72:1 74:2 75:1 76:1 79:1 82:1 83:1 86:1 
-0 -0 -0.2619609450657457 -0.1700547707656697 -0.1083254781121654 -0.07528748497050811 0.1513724036445288 0.2094052475349761 0 0.1080111479011758 0.05038368573743447 0.008640112247864991 0 3:1 4:1 13:2 14:2 19:2 22:1 24:2 27:1 28:1 32:1 33:1 35:2 37:3 39:3 42:3 43:2 44:1 45:2 46:2 47:1 48:2 49:1 52:1 53:4 54:2 55:2 57:3 59:2 61:1 62:1 63:1 64:3 66:2 67:4 68:1 69:1 72:2 73:1 75:1 76:1 77:2 78:1 87:2 88:3 
-0.06181565740589064 -0 -0.2101556453901336 -0.1345022753523218 -0.1587794830781523 -0.0844619238539218 0.2141154808437606 0.4903053852839239 0 0.06872807068238747 0.03595998267014872 0.1128334800795897 0.18791753979545 12:4 13:4 18:4 19:2 22:4 23:2 24:1 27:2 28:2 29:2 32:4 34:3 37:3 42:3 43:1 44:2 45:1 46:2 47:2 48:1 52:2 54:1 55:3 56:3 57:1 58:2 59:1 62:2 63:2 64:2 67:3 69:2 72:2 73:2 74:2 76:3 79:2 82:1 83:2 85:3 86:1 87:1 88:2 89:1 
-0.2530497268275836 -0.04120373057104856 -0 -0 -0 -0.2059223372939755 0.1070378019195266 0 0.2799916144534271 0.3511622325463953 0.3621463573922717 0.2154095779282635 0.07541885751166023 12:2 13:2 18:2 22:2 24:2 27:2 29:2 32:2 34:2 37:2 42:3 43:1 45:2 46:1 47:1 52:2 54:2 55:2 56:1 57:3 59:1 62:2 63:2 64:3 66:1 67:4 69:2 72:2 73:2 74:1 75:1 79:2 85:1 87:1 88:3 89:1 
-0.6689454844564918 -0.8147660162056373 -1.257507969518033 -1.129214477070683 -1.35317048773234 -0.8643151806019831 1.13432534301501 1.210652059545596 0.8308178303588067 1.105490124074679 0.7513617776387512 0.9929557402789969 1.149310111707412 11:2 13:2 14:3 19:3 21:2 23:4 25:2 28:3 31:1 33:3 35:2 37:1 38:2 43:2 46:2 47:1 48:1 50:1 51:2 53:2 55:1 56:2 57:1 58:3 60:2 61:2 63:2 64:2 65:2 66:1 67:1 68:2 70:2 71:2 72:1 73:2 74:3 75:1 76:2 77:2 79:2 80:2 84:1 86:1 88:1 89:3 
-0 -0 -0 -0.0690510072910825 -0 -0 0 0 0 0 0 0 0 13:2 14:2 19:1 22:2 23:1 24:3 28:2 29:2 32:2 34:1 35:1 37:2 39:3 42:1 43:1 44:1 45:1 46:1 47:1 48:1 49:3 52:2 53:2 54:2 55:2 56:2 57:1 58:2 59:1 62:3 63:2 64:4 65:1 67:3 68:2 73:2 74:1 75:1 76:3 77:2 79:1 85:1 86:1 87:1 88:2 89:2 
-0 -0 -0 -0 -0 -0 0 0 0 0.02680070409096189 0 0 0 11:1 12:2 16:1 17:1 18:2 21:1 23:2 26:2 31:2 32:2 34:3 36:2 37:1 38:2 39:1 42:2 43:3 44:1 45:3 46:1 47:3 48:2 49:1 52:2 53:2 54:3 55:1 56:1 57:4 58:2 59:4 62:1 64:2 65:1 67:1 68:1 69:3 72:2 73:1 75:1 76:2 78:1 83:2 
-0 -0.1346488069948773 -0.3565128955426488 -0.21106878400332 -0.2673035693324241 -0.223313667812705 0.1072128051762047 0.3655736829622808 0 0.3635328382819054 0.09999826891748578 0.3527609320053877 0.2730412563776349 11:1 12:3 13:1 16:2 18:3 21:1 23:3 24:1 26:2 28:1 31:1 32:1 33:1 34:2 36:2 37:3 38:2 39:1 42:1 43:3 44:1 45:4 47:4 48:1 49:2 52:3 53:2 54:3 55:1 56:4 57:3 58:2 59:4 62:2 63:1 64:2 65:2 66:4 68:2 69:2 72:2 73:3 76:1 83:2 
-0.5567897052975681 -0.4572019114520314 -0.3226119296735286 -0.5622096230328608 -0.3302746386084833 -0.2301635443075105 0.6314443549584011 0.6519503500544191 0.2335750757705352 0.6117469182078824 0.3429894793313578 0.4460962897631587 0.3710818241787501 11:1 12:1 16:2 18:3 21:1 23:2 26:1 28:1 32:1 34:2 36:2 37:2 39:1 42:3 43:1 45:1 46:2 47:2 48:1 49:3 52:2 54:1 57:3 58:3 59:1 62:1 63:1 65:2 67:1 68:2 69:3 70:1 73:1 74:1 77:1 83:1 84:3 
-0.4300134589423172 -0.3725398197784856 -0.2370068831442896 -0.5963368305463065 -0.3933764196752568 -0.4359410358488928 0.3964641820178212 0.3484049401758951 0.758868435648011 0.5013754429918007 0.3681122681052443 0.185863341205504 0.4418614681668425 12:1 13:3 14:1 22:1 24:2 28:2 29:3 32:1 34:1 37:3 39:2 42:3 43:2 44:1 45:1 46:1 47:1 49:1 52:1 53:1 54:1 55:3 56:1 59:2 62:2 63:3 64:2 65:2 66:1 67:3 68:2 69:2 71:2 72:1 74:2 76:2 77:3 78:1 82:2 83:1 85:3 87:2 88:2 
-0 -0 -0 -0 -0 -0 0 0 0 0.03177704794533312 0 0 0 12:2 13:1 18:1 22:3 23:1 27:2 28:2 29:1 32:2 34:2 36:2 37:1 38:2 39:2 42:2 43:1 44:2 46:3 47:1 48:2 49:1 53:4 55:3 56:1 57:4 58:2 59:2 63:4 64:2 65:1 66:1 67:2 68:2 73:4 74:2 76:2 78:2 79:2 82:1 83:3 85:1 86:1 88:3 
-0.405777031034132 -0.1018140376428298 -0.5463095293178938 -0.5952758593567276 -0.5178504208006265 -0.5625653343800215 0.3588445583305406 0.5408370070188517 0.4402768850135271 1.036907544696103 0.5653755224082464 0.266425634488464 0.02522317060406714 11:1 12:2 16:1 18:2 21:1 23:2 26:2 28:1 31:1 32:2 34:2 36:2 37:1 39:1 42:1 45:2 46:2 47:1 48:2 49:3 52:1 53:1 54:2 56:1 57:2 58:3 59:2 62:1 63:1 64:1 65:2 68:2 69:2 73:1 74:1 77:1 83:1 84:2 
-0 -0.01171268708955542 -0 -0.1605483399441903 -0.1192476089959457 -0 0 0.04724429964899267 0 0.0965209465337524 0 0.07160222455004696 0.07153458246538677 12:2 13:1 18:2 22:2 23:1 27:4 28:2 32:2 34:2 36:1 37:1 38:2 43:1 44:2 46:2 47:2 48:2 49:1 53:4 55:4 56:1 57:4 58:2 59:2 63:4 64:2 65:1 66:2 67:3 68:2 69:2 73:4 74:2 75:1 76:3 78:2 79:2 83:3 85:1 86:1 88:3 89:1 
-0.2731813493801032 -0.6370187290642075 -0.7084505917272496 -0.5977900676132261 -0.631158150284354 -0.4197394744116832 0.3801995133513526 0.7091074208794765 0.5479894504917304 0.8903217549299144 0.7468332601441785 0.5893878448408556 0.4563286604474471 13:2 14:1 18:1 19:4 22:1 25:1 27:1 28:1 29:1 32:1 33:2 34:1 35:1 36:1 37:1 39:3 42:2 43:2 44:2 45:2 46:3 48:1 49:1 52:1 53:3 54:2 55:1 56:1 57:2 58:1 59:2 61:1 62:2 63:1 64:1 66:3 67:2 68:1 74:1 75:1 77:1 78:3 88:1 
-0 -0 -0 -0 -0 -0 0 0 0 0 0 0 0.03351056990270965 12:2 17:3 18:3 22:2 23:2 26:1 27:1 28:2 29:1 34:2 36:1 38:2 39:2 42:1 43:1 45:1 46:3 47:2 48:1 49:2 52:2 53:2 54:1 55:3 56:1 57:3 59:1 62:3 63:2 64:3 66:1 67:2 68:2 69:1 72:2 73:2 75:3 76:2 79:2 82:1 83:3 85:1 86:1 88:1 
-0.2334753611490926 -0 -0 -0.1717981939116409 -0 -0.1171650529140823 0.5669205690382184 0.4012172155512815 0 0 0.148325316882806 0.2680641222893785 0.1243434605144828 12:2 13:1 17:3 18:3 19:1 23:1 24:1 27:3 28:2 29:2 34:2 36:2 37:2 38:2 39:2 43:1 44:1 45:1 46:2 47:3 48:2 49:2 53:2 54:1 55:3 57:4 58:2 59:2 63:2 64:2 66:1 68:2 69:2 73:4 75:3 76:2 78:2 79:2 83:1 88:2 
-1.072486375762829 -0.6895330994010361 -1.848067006827002 -0.9640282217764548 -1.658143163104459 -0.6037983369299712 1.170455152480907 1.298627252926323 0.471870355790071 0 0.9408947424180359 1.265227149566997 1.140326774848205 12:1 17:3 18:1 22:1 23:2 24:1 26:1 27:2 28:2 29:2 32:1 34:2 36:1 39:1 42:1 43:2 45:2 46:2 47:2 48:2 49:1 52:1 53:2 54:2 56:2 57:2 58:2 59:1 62:1 64:2 65:1 67:2 68:2 72:1 73:2 74:1 75:1 76:2 77:1 78:2 79:1 83:2 84:1 
-0 -0.1512877373373301 -0 -0.09797132433234097 -0.02233775075009887 -0.2850845890642077 0.07298635914643396 0.1445759738286591 0 0 0 0.09092766825046517 0.3293187577244514 12:2 13:2 14:1 18:2 19:1 22:2 24:2 27:2 29:2 32:4 34:2 37:2 42:3 43:1 45:1 46:3 47:1 52:3 55:3 56:1 57:3 59:1 62:2 63:2 64:4 65:1 66:1 67:3 69:2 72:2 73:2 75:1 77:1 79:2 85:1 87:1 88:4 89:1 
-0 -0 -0 -0 -0 -0 0 0 0.09828625612135078 0 0 0 0 12:2 13:1 17:1 18:1 21:2 22:2 23:3 26:2 28:1 32:1 34:3 36:2 37:1 38:1 39:2 42:2 44:1 45:2 46:2 48:1 52:2 53:2 54:3 56:2 57:3 58:1 59:3 62:1 63:1 64:3 65:2 67:1 68:1 69:2 72:2 73:1 74:1 75:1 76:3 79:1 83:2 
-0 -0 -0.3950307897603256 -0 -0.04685666228867591 -0 0.08522318142060815 0 0 0.01309266854096389 0 0 0.1003536133220469 4:2 13:2 14:2 23:1 25:2 28:2 29:3 32:1 35:2 37:2 38:1 39:1 42:3 43:2 44:2 45:2 46:1 47:1 48:1 49:3 52:1 53:2 54:2 55:1 56:1 57:3 58:1 59:1 61:1 62:2 63:2 64:3 66:2 67:3 68:1 69:2 72:3 73:1 74:2 75:2 76:1 77:3 87:2 88:3 
